svm_type c_svc
kernel_type rbf
gamma 0.047619
nr_class 4
total_sv 972
rho -1.00621 -1.01704 0.0786723 -0.504281 0.978496 1.01197
label 1 2 3 0
nr_sv 488 6 5 473
SV
0 0 1 1:-1 2:-0.977273 3:-0.9 4:-0.846154 5:0.00819195 6:0.00828365 7:-0.0440351 8:-0.0588555 9:-0.00728187 10:0.154339 11:-0.213547 12:-0.122632 13:-0.233349 14:0.983482 15:0.889101 16:0.798543 17:0.967519 18:0.810574 19:0.897273 20:0.999441 21:0.82393 
0 0 1 1:-0.817308 2:-0.931818 3:-0.7 4:-0.846154 5:-0.112373 6:0.00828365 7:-0.0440351 8:-0.0588555 9:-0.00728187 10:0.154339 11:-0.213547 12:-0.122632 13:-0.233349 14:0.966964 15:0.778201 16:0.597086 17:0.935039 18:1 19:1 20:0.998881 21:1 
0 0 1 1:-0.942308 2:-0.954545 3:-1 4:-0.846154 5:-0.112373 6:-0.131536 7:-0.298028 8:-0.47533 9:-0.188316 10:-0.137604 11:-0.694421 12:-0.605677 13:-0.725556 14:0.966964 15:0.778201 16:0.597086 17:0.935039 18:1 19:1 20:0.998881 21:1 
0.1128328422897328 0 1 1:-0.961538 2:-0.954545 3:-0.8 4:0.538462 5:-0.0143679 6:-0.424682 7:-0.446971 8:-0.503058 9:-0.449419 10:0.303135 11:-0.149364 12:-0.252093 13:-0.217829 14:0.469464 15:0.506705 16:0.468344 17:0.448036 18:0.349152 19:0.531215 20:0.662366 21:0.350802 
0 0.2372949973448621 1 1:-0.798077 2:-0.931818 3:-1 4:-0.538462 5:-0.431951 6:-0.834749 7:-0.793495 8:-0.717276 9:-0.830035 10:0.552073 11:0.269866 12:0.228966 13:0.235217 14:-0.868482 15:-0.852288 16:-0.848344 17:-0.867383 18:-0.843867 19:-0.809603 20:-0.787091 21:-0.842376 
0.3235326321196202 0 1 1:-1 2:-0.977273 3:-0.7 4:0.230769 5:-0.426911 6:-0.982166 7:-0.915096 8:-0.792578 9:-0.96666 10:1 11:1 12:1 13:1 14:-0.838036 15:-0.816461 16:-0.791523 17:-0.834861 18:-0.77049 19:-0.713192 20:-0.633037 21:-0.763126 
0 0 0.5710575141651755 1:-0.855769 2:-0.954545 3:-1 4:0.230769 5:0.16391 6:1 7:1 8:1 9:1 10:0.318561 11:0.0448253 12:0.0751357 13:0.00692129 14:-0.532857 15:-0.464633 16:-0.421192 17:-0.524163 18:-0.647997 19:-0.553704 20:-0.459361 21:-0.636425 
0 0.01131976893814017 0 1:-0.740385 2:-0.818182 3:-1 4:0.692308 5:-0.0548037 6:-0.940168 7:-0.902432 8:-0.820307 9:-0.934757 10:0.506888 11:0.221413 12:0.235682 13:0.204588 14:-0.746018 15:-0.713673 16:-0.70649 17:-0.74372 18:-0.776085 19:-0.722144 20:-0.67759 21:-0.771296 
0 0 1 1:-0.903846 2:-0.931818 3:-0.9 4:-0.538462 5:-0.0974551 6:-0.529573 7:-0.476615 8:-0.321463 9:-0.500229 10:0.215005 11:0.121463 12:0.352041 13:0.126134 14:-0.80817 15:-0.786386 16:-0.777748 17:-0.806379 18:-0.849394 19:-0.815667 20:-0.77879 21:-0.84598 
0 0 1 1:-0.798077 2:-0.931818 3:-0.9 4:-0.538462 5:0.144307 6:-0.904184 7:-0.848323 8:-0.772733 9:-0.895441 10:0.642633 11:0.503996 12:0.339872 13:0.406462 14:-0.816057 15:-0.78918 16:-0.775806 17:-0.812962 18:-0.875536 19:-0.843164 20:-0.810469 21:-0.872359 
0 0 1 1:-0.798077 2:-0.886364 3:-1 4:-0.538462 5:0.273319 6:-0.904184 7:-0.848323 8:-0.772733 9:-0.895441 10:0.642633 11:0.503996 12:0.339872 13:0.406462 14:-0.530491 15:-0.458388 16:-0.420662 17:-0.518386 18:-0.668146 19:-0.575976 20:-0.488419 21:-0.654088 
0 0 1 1:-0.971154 2:-0.977273 3:-0.5 4:-0.538462 5:-0.130823 6:1 7:1 8:1 9:1 10:0.318561 11:0.0448253 12:0.0751357 13:0.00692129 14:-0.589018 15:-0.533 16:-0.482649 17:-0.575265 18:-0.589318 19:-0.48377 20:-0.359168 21:-0.569106 
0 0 1 1:-0.971154 2:-0.909091 3:-0.9 4:-0.230769 5:0.128942 6:1 7:1 8:1 9:1 10:0.318561 11:0.0448253 12:0.0751357 13:0.00692129 14:-0.472589 15:-0.387063 16:-0.308609 17:-0.45098 18:-0.58761 19:-0.469153 20:-0.328382 21:-0.563991 
0 0 1 1:-0.798077 2:-0.931818 3:-0.9 4:-0.0769231 5:-0.391198 6:-0.63974 7:-0.574903 8:-0.454669 9:-0.61873 10:0.422974 11:0.319943 12:0.393814 13:0.287985 14:-0.891161 15:-0.872075 16:-0.859338 17:-0.886963 18:-0.860591 19:-0.819138 20:-0.775349 21:-0.853562 
0 0 1 1:-1 2:-0.977273 3:-0.8 4:-0.0769231 5:-0.00364875 6:1 7:1 8:1 9:1 10:0.318561 11:0.0448253 12:0.0751357 13:0.00692129 14:-0.659866 15:-0.62076 16:-0.569801 17:-0.648878 18:-0.693875 19:-0.622254 20:-0.519742 21:-0.679375 
0 0 1 1:-0.548077 2:-0.75 3:-0.9 4:-0.0769231 5:-0.293505 6:-0.529573 7:-0.476615 8:-0.321463 9:-0.500229 10:0.215005 11:0.121463 12:0.352041 13:0.126134 14:-0.922589 15:-0.912306 16:-0.898013 17:-0.920652 18:-0.920782 19:-0.902221 20:-0.868287 21:-0.918505 
0 0 1 1:-0.894231 2:-0.954545 3:-1 4:-0.0769231 5:0.0273621 6:-0.529573 7:-0.476615 8:-0.321463 9:-0.500229 10:0.215005 11:0.121463 12:0.352041 13:0.126134 14:-0.658929 15:-0.607021 16:-0.549536 17:-0.644504 18:-0.7273 19:-0.653089 20:-0.55086 21:-0.711502 
0 0 1 1:-0.615385 2:-0.931818 3:-0.8 4:0.0769231 5:-0.398445 6:-0.753284 7:-0.697942 8:-0.641158 9:-0.746114 10:0.536509 11:0.357533 12:0.202963 13:0.255796 14:-0.955804 15:-0.952143 16:-0.950066 17:-0.955813 18:-0.954496 19:-0.947712 20:-0.935922 21:-0.955013 
0 0.07228098155026685 1 1:-0.913462 2:-0.886364 3:-0.8 4:0.0769231 5:-0.162594 6:-0.753284 7:-0.697942 8:-0.641158 9:-0.746114 10:0.536509 11:0.357533 12:0.202963 13:0.255796 14:-0.753661 15:-0.718906 16:-0.700574 17:-0.749671 18:-0.792612 19:-0.738872 20:-0.689085 21:-0.786953 
0 0 1 1:-0.971154 2:-0.909091 3:-0.8 4:0.0769231 5:-0.207132 6:-0.584551 7:-0.487552 8:-0.305423 9:-0.551528 10:0.62347 11:0.59047 12:0.698784 13:0.58985 14:-0.715112 15:-0.671871 16:-0.636689 17:-0.706528 18:-0.746908 19:-0.678747 20:-0.599718 21:-0.735795 
0 0 1 1:-0.865385 2:-0.931818 3:-0.8 4:0.0769231 5:0.0398169 6:-0.524086 7:-0.44438 8:-0.2902 9:-0.493437 10:0.417135 11:0.358085 12:0.47585 13:0.337079 14:-0.766786 15:-0.729819 16:-0.691921 17:-0.757124 18:-0.81347 19:-0.761343 20:-0.692036 21:-0.803126 
0 0 1 1:-0.971154 2:-0.977273 3:-0.7 4:0.0769231 5:-0.00176404 6:-0.524086 7:-0.44438 8:-0.2902 9:-0.493437 10:0.417135 11:0.358085 12:0.47585 13:0.337079 14:-0.752411 15:-0.717591 16:-0.677219 17:-0.743126 18:-0.812152 19:-0.764077 20:-0.694581 21:-0.802464 
0 0 1 1:-0.865385 2:-0.931818 3:-0.9 4:0.0769231 5:-0.391198 6:-0.901863 7:-0.846597 8:-0.755335 9:-0.890935 10:0.607157 11:0.475067 12:0.419157 13:0.417795 14:-0.891161 15:-0.872075 16:-0.859338 17:-0.886963 18:-0.860591 19:-0.819138 20:-0.775349 21:-0.853562 
0 0 1 1:-0.855769 2:-0.931818 3:-0.9 4:0.0769231 5:0.13615 6:-0.524086 7:-0.44438 8:-0.2902 9:-0.493437 10:0.417135 11:0.358085 12:0.47585 13:0.337079 14:-0.753393 15:-0.716671 16:-0.681457 17:-0.743848 18:-0.797576 19:-0.744298 20:-0.674999 21:-0.786957 
0 0 1 1:-0.682692 2:-0.863636 3:-1 4:0.0769231 5:-0.0741464 6:-0.524086 7:-0.44438 8:-0.2902 9:-0.493437 10:0.417135 11:0.358085 12:0.47585 13:0.337079 14:-0.710179 15:-0.662985 16:-0.619956 17:-0.698356 18:-0.75389 19:-0.683211 20:-0.598589 21:-0.740226 
0.1363904509265077 0 0 1:-0.817308 2:-0.886364 3:-0.9 4:0.230769 5:0.195317 6:-0.982166 7:-0.915096 8:-0.792578 9:-0.96666 10:1 11:1 12:1 13:1 14:-0.703363 15:-0.660137 16:-0.621722 17:-0.696754 18:-0.768749 19:-0.708165 20:-0.634457 21:-0.760951 
0 0 1 1:-0.942308 2:-0.977273 3:-1 4:1 5:-0.29765 6:-0.524086 7:-0.44438 8:-0.2902 9:-0.493437 10:0.417135 11:0.358085 12:0.47585 13:0.337079 14:-0.875643 15:-0.861031 16:-0.844768 17:-0.872238 18:-0.890172 19:-0.867738 20:-0.830484 21:-0.886698 
0 0 1 1:-0.788462 2:-0.795455 3:-0.9 4:-1 5:-0.0143679 6:0.00828365 7:-0.0440351 8:-0.0588555 9:-0.00728187 10:0.154339 11:-0.213547 12:-0.122632 13:-0.233349 14:0.469464 15:0.506705 16:0.468344 17:0.448036 18:0.349152 19:0.531215 20:0.662366 21:0.350802 
0 0 1 1:-0.836538 2:-0.954545 3:-1 4:-1 5:0.417697 6:1 7:1 8:1 9:1 10:0.318561 11:0.0448253 12:0.0751357 13:0.00692129 14:-0.588393 15:-0.529713 16:-0.532715 17:-0.585791 18:-0.748683 19:-0.682799 20:-0.648456 21:-0.744185 
0 0 1 1:-0.875 2:-0.909091 3:-0.8 4:-1 5:-0.26205 6:-0.76753 7:-0.73435 8:-0.653663 9:-0.751927 10:0.0113329 11:-0.0841887 12:0.0682834 13:-0.140747 14:0.279152 15:0.211281 16:0.139735 17:0.270094 18:0.432053 19:0.521174 20:0.615363 21:0.449294 
0 0 1 1:-0.855769 2:-0.954545 3:-0.9 4:-1 5:0.128757 6:-0.76753 7:-0.73435 8:-0.653663 9:-0.751927 10:0.0113329 11:-0.0841887 12:0.0682834 13:-0.140747 14:1 15:1 16:1 17:1 18:0.621148 19:0.794547 20:1 21:0.64786 
0 0 1 1:-0.826923 2:-0.772727 3:-0.9 4:-1 5:0.128757 6:-0.491268 7:-0.448554 8:-0.352725 9:-0.47466 10:0.276396 11:0.104466 12:0.199474 13:0.0721879 14:1 15:1 16:1 17:1 18:0.621148 19:0.794547 20:1 21:0.64786 
0 0 1 1:-0.721154 2:-0.977273 3:-0.9 4:-1 5:-0.141485 6:-0.76753 7:-0.73435 8:-0.653663 9:-0.751927 10:0.0113329 11:-0.0841887 12:0.0682834 13:-0.140747 14:0.29567 15:0.32218 16:0.341192 17:0.302575 18:0.242626 19:0.418447 20:0.615923 21:0.273225 
0 0 1 1:-0.826923 2:-0.795455 3:-0.6 4:-1 5:-0.411727 6:-0.76753 7:-0.73435 8:-0.653663 9:-0.751927 10:0.0113329 11:-0.0841887 12:0.0682834 13:-0.140747 14:-0.408661 15:-0.35564 16:-0.317616 17:-0.394851 18:-0.135895 19:0.0423471 20:0.231845 21:-0.101411 
0 0 1 1:-0.490385 2:-0.75 3:-0.7 4:-1 5:0.128757 6:1 7:1 8:1 9:1 10:0.318561 11:0.0448253 12:0.0751357 13:0.00692129 14:1 15:1 16:1 17:1 18:0.621148 19:0.794547 20:1 21:0.64786 
0 0 1 1:-0.615385 2:-0.954545 3:-0.9 4:-1 5:-0.0143679 6:-0.790851 7:-0.772197 8:-0.731956 9:-0.794148 10:0.35415 11:-0.0220689 12:-0.0655685 13:-0.0702931 14:0.469464 15:0.506705 16:0.468344 17:0.448036 18:0.349152 19:0.531215 20:0.662366 21:0.350802 
0 0 1 1:-0.903846 2:-0.954545 3:-0.8 4:-1 5:0.118773 6:1 7:1 8:1 9:1 10:0.318561 11:0.0448253 12:0.0751357 13:0.00692129 14:-0.733616 15:-0.702275 16:-0.676026 17:-0.726976 18:-0.763467 19:-0.707145 20:-0.639684 21:-0.753804 
0 0 1 1:-0.980769 2:-0.977273 3:-0.7 4:-1 5:0.128757 6:-0.700733 7:-0.675205 8:-0.571836 9:-0.693247 10:0.343148 11:0.0424596 12:0.208623 13:0.0702527 14:1 15:1 16:1 17:1 18:0.621148 19:0.794547 20:1 21:0.64786 
0 0 1 1:-0.836538 2:-0.886364 3:-0.6 4:-1 5:-0.0143679 6:-0.790851 7:-0.772197 8:-0.731956 9:-0.794148 10:0.35415 11:-0.0220689 12:-0.0655685 13:-0.0702931 14:0.469464 15:0.506705 16:0.468344 17:0.448036 18:0.349152 19:0.531215 20:0.662366 21:0.350802 
0 0 1 1:-0.903846 2:-0.977273 3:-0.9 4:-1 5:0.128757 6:-0.491268 7:-0.448554 8:-0.352725 9:-0.47466 10:0.276396 11:0.104466 12:0.199474 13:0.0721879 14:1 15:1 16:1 17:1 18:0.621148 19:0.794547 20:1 21:0.64786 
0 0 1 1:-0.875 2:-0.954545 3:-1 4:-1 5:0.128757 6:-0.491268 7:-0.448554 8:-0.352725 9:-0.47466 10:0.276396 11:0.104466 12:0.199474 13:0.0721879 14:1 15:1 16:1 17:1 18:0.621148 19:0.794547 20:1 21:0.64786 
0 0 1 1:-0.990385 2:-0.977273 3:-0.9 4:-1 5:1 6:-0.63974 7:-0.574903 8:-0.454669 9:-0.61873 10:0.422974 11:0.319943 12:0.393814 13:0.287985 14:-0.755625 15:-0.714567 16:-0.680265 17:-0.745487 18:-0.905474 19:-0.878309 20:-0.843595 21:-0.900576 
0 0 1 1:-0.894231 2:-0.977273 3:-0.9 4:-1 5:0.128757 6:1 7:1 8:1 9:1 10:0.318561 11:0.0448253 12:0.0751357 13:0.00692129 14:1 15:1 16:1 17:1 18:0.621148 19:0.794547 20:1 21:0.64786 
0 0 1 1:-0.894231 2:-0.909091 3:-0.9 4:-1 5:0.128757 6:1 7:1 8:1 9:1 10:0.318561 11:0.0448253 12:0.0751357 13:0.00692129 14:1 15:1 16:1 17:1 18:0.621148 19:0.794547 20:1 21:0.64786 
0 0 1 1:-0.817308 2:-0.977273 3:-0.9 4:0.384615 5:-0.426911 6:-0.897325 7:-0.863865 8:-0.784967 9:-0.890903 10:0.322467 11:0.072866 12:0.139307 13:0.0470994 14:-0.838036 15:-0.816461 16:-0.791523 17:-0.834861 18:-0.77049 19:-0.713192 20:-0.633037 21:-0.763126 
0.004834386656820829 0 1 1:-0.817308 2:-0.954545 3:-0.8 4:0.384615 5:0.128757 6:-0.928982 7:-0.92704 8:-0.946989 9:-0.945239 10:0.298044 11:-0.329326 12:-0.690343 13:-0.481026 14:1 15:1 16:1 17:1 18:0.621148 19:0.794547 20:1 21:0.64786 
0 0 1 1:-0.884615 2:-0.977273 3:-0.9 4:0.384615 5:0.128757 6:1 7:1 8:1 9:1 10:0.318561 11:0.0448253 12:0.0751357 13:0.00692129 14:1 15:1 16:1 17:1 18:0.621148 19:0.794547 20:1 21:0.64786 
0 0 1 1:-0.807692 2:-0.863636 3:-0.8 4:0.384615 5:-0.0143679 6:-0.424682 7:-0.446971 8:-0.503058 9:-0.449419 10:0.303135 11:-0.149364 12:-0.252093 13:-0.217829 14:0.469464 15:0.506705 16:0.468344 17:0.448036 18:0.349152 19:0.531215 20:0.662366 21:0.350802 
0 0 1 1:-0.942308 2:-0.977273 3:-0.7 4:0.384615 5:-0.0143679 6:-0.789585 7:-0.780688 8:-0.69879 9:-0.78236 10:-0.00781142 11:-0.276691 12:-0.0258612 13:-0.266368 14:0.469464 15:0.506705 16:0.468344 17:0.448036 18:0.349152 19:0.531215 20:0.662366 21:0.350802 
0 0 1 1:-0.798077 2:-0.977273 3:-0.8 4:0.384615 5:0.0571946 6:-0.424682 7:-0.446971 8:-0.503058 9:-0.449419 10:0.303135 11:-0.149364 12:-0.252093 13:-0.217829 14:0.734732 15:0.753353 16:0.734172 17:0.724018 18:0.48515 19:0.662881 20:0.831183 21:0.499331 
0 0 1 1:-0.913462 2:-0.772727 3:-0.5 4:0.384615 5:-0.0143679 6:-0.424682 7:-0.446971 8:-0.503058 9:-0.449419 10:0.303135 11:-0.149364 12:-0.252093 13:-0.217829 14:0.469464 15:0.506705 16:0.468344 17:0.448036 18:0.349152 19:0.531215 20:0.662366 21:0.350802 
0 0 1 1:-0.903846 2:-0.954545 3:-0.9 4:0.384615 5:-0.0143679 6:-0.790851 7:-0.772197 8:-0.731956 9:-0.794148 10:0.35415 11:-0.0220689 12:-0.0655685 13:-0.0702931 14:0.469464 15:0.506705 16:0.468344 17:0.448036 18:0.349152 19:0.531215 20:0.662366 21:0.350802 
0.6454829540860839 0 1 1:-0.903846 2:-0.977273 3:-0.7 4:0.384615 5:-0.30739 6:1 7:1 8:1 9:1 10:0.318561 11:0.0448253 12:0.0751357 13:0.00692129 14:-0.959286 15:-0.957534 16:-0.967947 17:-0.961534 18:-0.966192 19:-0.964548 20:-0.976693 21:-0.970148 
0 0 1 1:-0.980769 2:-0.977273 3:-0.9 4:0.384615 5:-0.0239707 6:-0.60344 7:-0.566412 8:-0.466902 9:-0.587546 10:0.220731 11:0.0509117 12:0.188372 13:0.0287231 14:-0.423884 15:-0.390448 16:-0.36543 17:-0.421937 18:-0.476397 19:-0.387579 20:-0.287613 21:-0.46674 
0 0 1 1:-0.942308 2:-0.954545 3:-0.6 4:0.384615 5:-0.0143679 6:1 7:1 8:1 9:1 10:0.318561 11:0.0448253 12:0.0751357 13:0.00692129 14:0.469464 15:0.506705 16:0.468344 17:0.448036 18:0.349152 19:0.531215 20:0.662366 21:0.350802 
0 0 1 1:-0.913462 2:-0.909091 3:-0.8 4:-0.846154 5:-0.0143679 6:1 7:1 8:1 9:1 10:0.318561 11:0.0448253 12:0.0751357 13:0.00692129 14:0.469464 15:0.506705 16:0.468344 17:0.448036 18:0.349152 19:0.531215 20:0.662366 21:0.350802 
0 0 1 1:-0.826923 2:-0.909091 3:-0.8 4:-1 5:-0.0143679 6:-0.424682 7:-0.446971 8:-0.503058 9:-0.449419 10:0.303135 11:-0.149364 12:-0.252093 13:-0.217829 14:0.469464 15:0.506705 16:0.468344 17:0.448036 18:0.349152 19:0.531215 20:0.662366 21:0.350802 
0 0 1 1:-0.769231 2:-0.909091 3:-0.9 4:-0.846154 5:0.0571946 6:1 7:1 8:1 9:1 10:0.318561 11:0.0448253 12:0.0751357 13:0.00692129 14:0.734732 15:0.753353 16:0.734172 17:0.724018 18:0.48515 19:0.662881 20:0.831183 21:0.499331 
0 0 1 1:-0.653846 2:-0.977273 3:-1 4:-0.846154 5:0.128757 6:-0.700733 7:-0.675205 8:-0.571836 9:-0.693247 10:0.343148 11:0.0424596 12:0.208623 13:0.0702527 14:1 15:1 16:1 17:1 18:0.621148 19:0.794547 20:1 21:0.64786 
0 0 1 1:-0.548077 2:-0.954545 3:-1 4:-0.846154 5:-0.0143679 6:0.00828365 7:-0.0440351 8:-0.0588555 9:-0.00728187 10:0.154339 11:-0.213547 12:-0.122632 13:-0.233349 14:0.469464 15:0.506705 16:0.468344 17:0.448036 18:0.349152 19:0.531215 20:0.662366 21:0.350802 
0 0 1 1:-0.788462 2:-0.931818 3:-0.7 4:-0.846154 5:0.128757 6:-0.424682 7:-0.446971 8:-0.503058 9:-0.449419 10:0.303135 11:-0.149364 12:-0.252093 13:-0.217829 14:1 15:1 16:1 17:1 18:0.621148 19:0.794547 20:1 21:0.64786 
0 0 1 1:-0.903846 2:-0.977273 3:-0.9 4:-0.846154 5:0.128757 6:-0.614204 7:-0.705713 8:-0.667799 9:-0.61393 10:-0.663468 11:-1 12:-0.502076 13:-0.964163 14:1 15:1 16:1 17:1 18:0.621148 19:0.794547 20:1 21:0.64786 
0 0 1 1:-0.980769 2:-0.977273 3:-0.9 4:-0.846154 5:-0.427405 6:0.00828365 7:-0.0440351 8:-0.0588555 9:-0.00728187 10:0.154339 11:-0.213547 12:-0.122632 13:-0.233349 14:0.0923661 15:-0.01203 16:-0.116026 17:0.0737794 18:0.318709 19:0.318639 20:0.304848 21:0.315585 
0 0 1 1:-0.884615 2:-0.909091 3:-1 4:-0.846154 5:-0.112373 6:-0.131536 7:-0.298028 8:-0.47533 9:-0.188316 10:-0.137604 11:-0.694421 12:-0.605677 13:-0.725556 14:0.966964 15:0.778201 16:0.597086 17:0.935039 18:1 19:1 20:0.998881 21:1 
0 0 1 1:-0.855769 2:-0.977273 3:-0.4 4:-0.846154 5:0.00819195 6:-0.614204 7:-0.705713 8:-0.667799 9:-0.61393 10:-0.663468 11:-1 12:-0.502076 13:-0.964163 14:0.983482 15:0.889101 16:0.798543 17:0.967519 18:0.810574 19:0.897273 20:0.999441 21:0.82393 
0 0 1 1:-0.942308 2:-0.977273 3:-0.8 4:-0.846154 5:-0.0143679 6:-0.790851 7:-0.772197 8:-0.731956 9:-0.794148 10:0.35415 11:-0.0220689 12:-0.0655685 13:-0.0702931 14:0.469464 15:0.506705 16:0.468344 17:0.448036 18:0.349152 19:0.531215 20:0.662366 21:0.350802 
0 0 1 1:-0.903846 2:-0.954545 3:-0.8 4:-1 5:-0.0143679 6:-0.790851 7:-0.772197 8:-0.731956 9:-0.794148 10:0.35415 11:-0.0220689 12:-0.0655685 13:-0.0702931 14:0.469464 15:0.506705 16:0.468344 17:0.448036 18:0.349152 19:0.531215 20:0.662366 21:0.350802 
0 0 1 1:-0.788462 2:-0.977273 3:-0.5 4:-0.846154 5:0.00819195 6:-0.960112 7:-0.95467 8:-0.884192 9:-0.942463 10:-1 11:-0.928019 12:-0.421593 13:-1 14:0.983482 15:0.889101 16:0.798543 17:0.967519 18:0.810574 19:0.897273 20:0.999441 21:0.82393 
0 0 1 1:-0.923077 2:-0.977273 3:-0.7 4:-0.846154 5:-0.112373 6:0.00828365 7:-0.0440351 8:-0.0588555 9:-0.00728187 10:0.154339 11:-0.213547 12:-0.122632 13:-0.233349 14:0.966964 15:0.778201 16:0.597086 17:0.935039 18:1 19:1 20:0.998881 21:1 
0 0 1 1:-0.855769 2:-0.886364 3:-0.6 4:-0.846154 5:-0.0143679 6:0.00828365 7:-0.0440351 8:-0.0588555 9:-0.00728187 10:0.154339 11:-0.213547 12:-0.122632 13:-0.233349 14:0.469464 15:0.506705 16:0.468344 17:0.448036 18:0.349152 19:0.531215 20:0.662366 21:0.350802 
0 0 1 1:-0.903846 2:-0.954545 3:-0.6 4:-0.846154 5:-0.112373 6:-1 7:-1 8:-0.95596 9:-1 10:-0.489614 11:-0.857929 12:-0.606317 13:-0.898167 14:0.966964 15:0.778201 16:0.597086 17:0.935039 18:1 19:1 20:0.998881 21:1 
0 0 1 1:-0.894231 2:-0.977273 3:-0.6 4:-0.846154 5:-0.112373 6:-0.614204 7:-0.705713 8:-0.667799 9:-0.61393 10:-0.663468 11:-1 12:-0.502076 13:-0.964163 14:0.966964 15:0.778201 16:0.597086 17:0.935039 18:1 19:1 20:0.998881 21:1 
0 0 1 1:-0.769231 2:-0.977273 3:-0.9 4:-0.846154 5:-0.112373 6:-0.131536 7:-0.298028 8:-0.47533 9:-0.188316 10:-0.137604 11:-0.694421 12:-0.605677 13:-0.725556 14:0.966964 15:0.778201 16:0.597086 17:0.935039 18:1 19:1 20:0.998881 21:1 
0 0 1 1:-0.913462 2:-0.977273 3:-0.7 4:-0.846154 5:-0.427405 6:-1 7:-1 8:-0.95596 9:-1 10:-0.489614 11:-0.857929 12:-0.606317 13:-0.898167 14:0.0923661 15:-0.01203 16:-0.116026 17:0.0737794 18:0.318709 19:0.318639 20:0.304848 21:0.315585 
0 0 1 1:-0.865385 2:-0.977273 3:-0.8 4:-0.846154 5:-0.30684 6:-0.614204 7:-0.705713 8:-0.667799 9:-0.61393 10:-0.663468 11:-1 12:-0.502076 13:-0.964163 14:0.108884 15:0.0988693 16:0.0854305 17:0.10626 18:0.129283 19:0.215912 20:0.305407 21:0.139516 
0 0 1 1:-0.798077 2:-0.954545 3:-0.8 4:-0.846154 5:-0.0143679 6:1 7:1 8:1 9:1 10:0.318561 11:0.0448253 12:0.0751357 13:0.00692129 14:0.469464 15:0.506705 16:0.468344 17:0.448036 18:0.349152 19:0.531215 20:0.662366 21:0.350802 
0 0 1 1:-0.596154 2:-0.977273 3:-0.8 4:-0.846154 5:-0.112373 6:-0.131536 7:-0.298028 8:-0.47533 9:-0.188316 10:-0.137604 11:-0.694421 12:-0.605677 13:-0.725556 14:0.966964 15:0.778201 16:0.597086 17:0.935039 18:1 19:1 20:0.998881 21:1 
0 0 1 1:-0.932692 2:-0.977273 3:-0.8 4:-0.846154 5:0.00819195 6:-0.627394 7:-0.647719 8:-0.583254 9:-0.624673 10:-0.0911004 11:-0.411617 12:-0.143357 13:-0.397179 14:0.983482 15:0.889101 16:0.798543 17:0.967519 18:0.810574 19:0.897273 20:0.999441 21:0.82393 
0 0 1 1:-0.932692 2:-0.931818 3:-0.4 4:-0.846154 5:-0.112373 6:-1 7:-1 8:-0.95596 9:-1 10:-0.489614 11:-0.857929 12:-0.606317 13:-0.898167 14:0.966964 15:0.778201 16:0.597086 17:0.935039 18:1 19:1 20:0.998881 21:1 
0 0 1 1:-0.932692 2:-0.977273 3:-0.3 4:-0.846154 5:-0.112373 6:-0.627394 7:-0.647719 8:-0.583254 9:-0.624673 10:-0.0911004 11:-0.411617 12:-0.143357 13:-0.397179 14:0.966964 15:0.778201 16:0.597086 17:0.935039 18:1 19:1 20:0.998881 21:1 
0 0 1 1:-0.913462 2:-0.954545 3:-0.8 4:-0.846154 5:-0.112373 6:-0.627394 7:-0.647719 8:-0.583254 9:-0.624673 10:-0.0911004 11:-0.411617 12:-0.143357 13:-0.397179 14:0.966964 15:0.778201 16:0.597086 17:0.935039 18:1 19:1 20:0.998881 21:1 
0 0 1 1:-0.817308 2:-0.954545 3:-0.3 4:-0.846154 5:-0.0633705 6:0.00828365 7:-0.0440351 8:-0.0588555 9:-0.00728187 10:0.154339 11:-0.213547 12:-0.122632 13:-0.233349 14:0.718214 15:0.642453 16:0.532715 17:0.691538 18:0.674576 19:0.765608 20:0.830624 21:0.675401 
0 0 1 1:-0.605769 2:-0.863636 3:-0.9 4:-0.846154 5:-0.112373 6:0.00828365 7:-0.0440351 8:-0.0588555 9:-0.00728187 10:0.154339 11:-0.213547 12:-0.122632 13:-0.233349 14:0.966964 15:0.778201 16:0.597086 17:0.935039 18:1 19:1 20:0.998881 21:1 
0 0 1 1:-0.894231 2:-0.977273 3:-0.9 4:-0.846154 5:0.00819195 6:-0.614204 7:-0.705713 8:-0.667799 9:-0.61393 10:-0.663468 11:-1 12:-0.502076 13:-0.964163 14:0.983482 15:0.889101 16:0.798543 17:0.967519 18:0.810574 19:0.897273 20:0.999441 21:0.82393 
0 0 1 1:-0.788462 2:-0.954545 3:-0.9 4:-0.846154 5:-0.112373 6:1 7:1 8:1 9:1 10:0.318561 11:0.0448253 12:0.0751357 13:0.00692129 14:0.966964 15:0.778201 16:0.597086 17:0.935039 18:1 19:1 20:0.998881 21:1 
0 0 1 1:-0.846154 2:-0.931818 3:-0.7 4:-0.846154 5:-0.112373 6:-0.627394 7:-0.647719 8:-0.583254 9:-0.624673 10:-0.0911004 11:-0.411617 12:-0.143357 13:-0.397179 14:0.966964 15:0.778201 16:0.597086 17:0.935039 18:1 19:1 20:0.998881 21:1 
0 0 1 1:-0.836538 2:-0.886364 3:-0.8 4:-0.846154 5:-0.112373 6:-0.131536 7:-0.298028 8:-0.47533 9:-0.188316 10:-0.137604 11:-0.694421 12:-0.605677 13:-0.725556 14:0.966964 15:0.778201 16:0.597086 17:0.935039 18:1 19:1 20:0.998881 21:1 
0.1510048068568121 0 1 1:-0.903846 2:-0.931818 3:-0.7 4:0.538462 5:-0.0143679 6:-0.700733 7:-0.675205 8:-0.571836 9:-0.693247 10:0.343148 11:0.0424596 12:0.208623 13:0.0702527 14:0.469464 15:0.506705 16:0.468344 17:0.448036 18:0.349152 19:0.531215 20:0.662366 21:0.350802 
0 0 1 1:-0.875 2:-0.931818 3:-0.9 4:0.538462 5:-0.0143679 6:-0.424682 7:-0.446971 8:-0.503058 9:-0.449419 10:0.303135 11:-0.149364 12:-0.252093 13:-0.217829 14:0.469464 15:0.506705 16:0.468344 17:0.448036 18:0.349152 19:0.531215 20:0.662366 21:0.350802 
0 0 1 1:-0.740385 2:-0.886364 3:-0.5 4:-0.538462 5:0.269138 6:-0.834749 7:-0.793495 8:-0.717276 9:-0.830035 10:0.552073 11:0.269866 12:0.228966 13:0.235217 14:-0.841429 15:-0.820208 16:-0.799205 17:-0.83818 18:-0.916745 19:-0.899131 20:-0.87612 21:-0.915802 
0 0 0.3871406863449688 1:-0.701923 2:-0.613636 3:-0.7 4:-0.538462 5:0.151608 6:1 7:1 8:1 9:1 10:0.318561 11:0.0448253 12:0.0751357 13:0.00692129 14:-0.736845 15:-0.706635 16:-0.676071 17:-0.731295 18:-0.803314 19:-0.758729 20:-0.700995 21:-0.796969 
0 0 1 1:-0.942308 2:-0.977273 3:-0.8 4:-0.538462 5:0.188227 6:1 7:1 8:1 9:1 10:0.318561 11:0.0448253 12:0.0751357 13:0.00692129 14:-0.677634 15:-0.633316 16:-0.629801 17:-0.674971 18:-0.772867 19:-0.715236 20:-0.677481 21:-0.768331 
0 0 1 1:-0.913462 2:-0.909091 3:-1 4:-0.538462 5:-0.0721552 6:1 7:1 8:1 9:1 10:0.318561 11:0.0448253 12:0.0751357 13:0.00692129 14:-0.760446 15:-0.731331 16:-0.731656 17:-0.758707 18:-0.783295 19:-0.732329 20:-0.702065 21:-0.779413 
0 0.1102140277053865 1 1:-0.836538 2:-0.954545 3:-0.8 4:-0.538462 5:-0.0892241 6:-0.834749 7:-0.793495 8:-0.717276 9:-0.830035 10:0.552073 11:0.269866 12:0.228966 13:0.235217 14:-0.715938 15:-0.672298 16:-0.638278 17:-0.706257 18:-0.776901 19:-0.71685 20:-0.652537 21:-0.76707 
0.008579613364530083 0 0 1:-0.865385 2:-0.954545 3:-0.9 4:0.230769 5:-0.548477 6:-0.982166 7:-0.915096 8:-0.792578 9:-0.96666 10:1 11:1 12:1 13:1 14:-0.939286 15:-0.931633 16:-0.927152 17:-0.938594 18:-0.902216 19:-0.879835 20:-0.855469 21:-0.900736 
0.5466291909660203 0 1 1:-0.75 2:-0.863636 3:-0.9 4:0.230769 5:-0.211858 6:1 7:1 8:1 9:1 10:0.318561 11:0.0448253 12:0.0751357 13:0.00692129 14:-0.744821 15:-0.708717 16:-0.68755 17:-0.740515 18:-0.787992 19:-0.734531 20:-0.683826 21:-0.782432 
0 0 1 1:-0.875 2:-0.954545 3:-1 4:-0.692308 5:0.134954 6:-0.60344 7:-0.566412 8:-0.466902 9:-0.587546 10:0.220731 11:0.0509117 12:0.188372 13:0.0287231 14:-0.759286 15:-0.734683 16:-0.693245 17:-0.752625 18:-0.823893 19:-0.787011 20:-0.720311 21:-0.816916 
0 0 1 1:-0.913462 2:-0.977273 3:-1 4:-0.692308 5:-0.0742174 6:-0.60344 7:-0.566412 8:-0.466902 9:-0.587546 10:0.220731 11:0.0509117 12:0.188372 13:0.0287231 14:-0.845268 15:-0.826979 16:-0.790464 17:-0.838027 18:-0.86699 19:-0.837026 20:-0.773337 21:-0.859012 
0 0 1 1:-0.490385 2:-0.727273 3:-0.7 4:-0.692308 5:0.137936 6:-0.524086 7:-0.44438 8:-0.2902 9:-0.493437 10:0.417135 11:0.358085 12:0.47585 13:0.337079 14:-0.755848 15:-0.721667 16:-0.681325 17:-0.747264 18:-0.84764 19:-0.809038 20:-0.750894 21:-0.840703 
0 0.06776472180582557 1 1:-0.817308 2:-0.909091 3:-1 4:-0.692308 5:0.0843792 6:-0.529573 7:-0.476615 8:-0.321463 9:-0.500229 10:0.215005 11:0.121463 12:0.352041 13:0.126134 14:-0.619687 15:-0.558441 16:-0.500265 17:-0.604052 18:-0.70054 19:-0.615248 20:-0.510209 21:-0.683558 
0 0 1 1:-0.855769 2:-0.931818 3:-1 4:-0.692308 5:0.00157947 6:1 7:1 8:1 9:1 10:0.318561 11:0.0448253 12:0.0751357 13:0.00692129 14:-0.865938 15:-0.856495 16:-0.830464 17:-0.861856 18:-0.895029 19:-0.877912 20:-0.832928 21:-0.890783 
0 0.07125069314853416 0 1:-0.663462 2:-0.863636 3:-0.9 4:0.692308 5:-0.656187 6:-0.940168 7:-0.902432 8:-0.820307 9:-0.934757 10:0.506888 11:0.221413 12:0.235682 13:0.204588 14:-0.96125 15:-0.959506 16:-0.959205 17:-0.961756 18:-0.922829 19:-0.913905 20:-0.903109 21:-0.924215 
0 0 0.8462912288700479 1:-0.423077 2:-0.75 3:-0.9 4:0.692308 5:0.280585 6:1 7:1 8:1 9:1 10:0.318561 11:0.0448253 12:0.0751357 13:0.00692129 14:-0.712121 15:-0.672923 16:-0.662119 17:-0.708611 18:-0.800758 19:-0.751264 20:-0.71589 21:-0.796579 
0 0.2610117980080041 0 1:-1 2:-0.977273 3:-1 4:0.692308 5:-0.196216 6:-0.940168 7:-0.902432 8:-0.820307 9:-0.934757 10:0.506888 11:0.221413 12:0.235682 13:0.204588 14:-0.795893 15:-0.77097 16:-0.754437 17:-0.793183 18:-0.787401 19:-0.736978 20:-0.680623 21:-0.781982 
0 0 1 1:-0.615385 2:-0.886364 3:-1 4:0.846154 5:-0.654568 6:-0.524086 7:-0.44438 8:-0.2902 9:-0.493437 10:0.417135 11:0.358085 12:0.47585 13:0.337079 14:-0.919598 15:-0.904681 16:-0.88702 17:-0.915306 18:-0.826422 19:-0.774346 20:-0.70353 21:-0.81556 
0 0 1 1:-0.682692 2:-0.954545 3:-1 4:-0.538462 5:-0.130823 6:1 7:1 8:1 9:1 10:0.318561 11:0.0448253 12:0.0751357 13:0.00692129 14:-0.589018 15:-0.533 16:-0.482649 17:-0.575265 18:-0.589318 19:-0.48377 20:-0.359168 21:-0.569106 
0 0 1 1:-0.538462 2:-0.909091 3:-0.8 4:-0.538462 5:0.0773763 6:1 7:1 8:1 9:1 10:0.318561 11:0.0448253 12:0.0751357 13:0.00692129 14:-0.886607 15:-0.886011 16:-0.870464 17:-0.885686 18:-0.923068 19:-0.918799 20:-0.892519 21:-0.922553 
0 0 1 1:-0.903846 2:-0.954545 3:-0.5 4:-0.538462 5:0.132242 6:-0.524086 7:-0.44438 8:-0.2902 9:-0.493437 10:0.417135 11:0.358085 12:0.47585 13:0.337079 14:-0.764018 15:-0.733062 16:-0.688124 17:-0.75543 18:-0.82659 19:-0.783924 20:-0.713503 21:-0.818005 
0 0 1 1:-0.903846 2:-0.977273 3:-0.6 4:-0.538462 5:-0.179611 6:-0.529573 7:-0.476615 8:-0.321463 9:-0.500229 10:0.215005 11:0.121463 12:0.352041 13:0.126134 14:-0.841607 15:-0.820221 16:-0.799099 17:-0.83721 18:-0.855361 19:-0.819213 20:-0.772168 21:-0.84984 
0 0 1 1:-0.894231 2:-0.954545 3:-0.8 4:-0.538462 5:0.417697 6:-0.834749 7:-0.793495 8:-0.717276 9:-0.830035 10:0.552073 11:0.269866 12:0.228966 13:0.235217 14:-0.588393 15:-0.529713 16:-0.532715 17:-0.585791 18:-0.748683 19:-0.682799 20:-0.648456 21:-0.744185 
0 0 0.5648124706185905 1:-0.605769 2:-0.886364 3:-0.7 4:-0.538462 5:0.417697 6:-0.904184 7:-0.848323 8:-0.772733 9:-0.895441 10:0.642633 11:0.503996 12:0.339872 13:0.406462 14:-0.588393 15:-0.529713 16:-0.532715 17:-0.585791 18:-0.748683 19:-0.682799 20:-0.648456 21:-0.744185 
0 0 1 1:-0.855769 2:-0.931818 3:-0.9 4:-0.538462 5:0.0282814 6:-0.753284 7:-0.697942 8:-0.641158 9:-0.746114 10:0.536509 11:0.357533 12:0.202963 13:0.255796 14:-0.944464 15:-0.933211 16:-0.916291 17:-0.941676 18:-0.970409 19:-0.960707 20:-0.936969 21:-0.968981 
0 0 1 1:-0.653846 2:-0.886364 3:-0.9 4:-0.538462 5:0.417697 6:-0.904184 7:-0.848323 8:-0.772733 9:-0.895441 10:0.642633 11:0.503996 12:0.339872 13:0.406462 14:-0.588393 15:-0.529713 16:-0.532715 17:-0.585791 18:-0.748683 19:-0.682799 20:-0.648456 21:-0.744185 
0 0 1 1:-0.932692 2:-0.954545 3:-1 4:-0.538462 5:0.417697 6:-0.529573 7:-0.476615 8:-0.321463 9:-0.500229 10:0.215005 11:0.121463 12:0.352041 13:0.126134 14:-0.588393 15:-0.529713 16:-0.532715 17:-0.585791 18:-0.748683 19:-0.682799 20:-0.648456 21:-0.744185 
0 0 1 1:-0.721154 2:-0.818182 3:-0.6 4:-0.538462 5:-0.49731 6:-0.834749 7:-0.793495 8:-0.717276 9:-0.830035 10:0.552073 11:0.269866 12:0.228966 13:0.235217 14:-0.831696 15:-0.810807 16:-0.783841 17:-0.827668 18:-0.722866 19:-0.656642 20:-0.558638 21:-0.71227 
0 0 1 1:-0.951923 2:-0.954545 3:-1 4:-0.538462 5:-0.0742174 6:-0.60344 7:-0.566412 8:-0.466902 9:-0.587546 10:0.220731 11:0.0509117 12:0.188372 13:0.0287231 14:-0.845268 15:-0.826979 16:-0.790464 17:-0.838027 18:-0.86699 19:-0.837026 20:-0.773337 21:-0.859012 
0 0 1 1:-0.673077 2:-0.795455 3:-1 4:-0.538462 5:0.352165 6:-0.529573 7:-0.476615 8:-0.321463 9:-0.500229 10:0.215005 11:0.121463 12:0.352041 13:0.126134 14:-0.674196 15:-0.632856 16:-0.57894 17:-0.663251 18:-0.799195 19:-0.751433 20:-0.676906 21:-0.789908 
0 0.08350486504333576 1 1:-0.903846 2:-0.977273 3:-1 4:-0.538462 5:0.0129375 6:-0.529573 7:-0.476615 8:-0.321463 9:-0.500229 10:0.215005 11:0.121463 12:0.352041 13:0.126134 14:-0.613304 15:-0.556403 16:-0.522517 17:-0.602122 18:-0.678574 19:-0.593069 20:-0.513003 21:-0.66517 
0 0 1 1:-0.586538 2:-0.909091 3:-1 4:-0.384615 5:0.130063 6:-0.524086 7:-0.44438 8:-0.2902 9:-0.493437 10:0.417135 11:0.358085 12:0.47585 13:0.337079 14:-0.788661 15:-0.760387 16:-0.730927 17:-0.78196 18:-0.85844 19:-0.82358 20:-0.774793 21:-0.852473 
0.01746090622349911 0 1 1:-0.855769 2:-0.954545 3:-1 4:-0.384615 5:-0.380262 6:-0.524086 7:-0.44438 8:-0.2902 9:-0.493437 10:0.417135 11:0.358085 12:0.47585 13:0.337079 14:-0.87183 15:-0.853602 16:-0.833377 17:-0.867189 18:-0.86978 19:-0.842495 20:-0.797914 21:-0.865368 
0 0 1 1:-0.759615 2:-0.954545 3:-0.9 4:-0.0769231 5:-0.567708 6:-0.60344 7:-0.566412 8:-0.466902 9:-0.587546 10:0.220731 11:0.0509117 12:0.188372 13:0.0287231 14:-0.825357 15:-0.805154 16:-0.776159 17:-0.820474 18:-0.675242 19:-0.600092 20:-0.484239 21:-0.661415 
0 0 1 1:-0.961538 2:-0.977273 3:-1 4:-0.0769231 5:0.277724 6:-0.753284 7:-0.697942 8:-0.641158 9:-0.746114 10:0.536509 11:0.357533 12:0.202963 13:0.255796 14:-0.830893 15:-0.805811 16:-0.775232 17:-0.825946 18:-0.904271 19:-0.879911 20:-0.83963 21:-0.900904 
0 0 1 1:-0.875 2:-0.886364 3:-0.9 4:-0.0769231 5:-0.370636 6:-0.753284 7:-0.697942 8:-0.641158 9:-0.746114 10:0.536509 11:0.357533 12:0.202963 13:0.255796 14:-0.775134 15:-0.744084 16:-0.718146 17:-0.767983 18:-0.761053 19:-0.699505 20:-0.630278 21:-0.750531 
0 0.4547547685416989 1 1:-1 2:-0.977273 3:-0.8 4:-0.0769231 5:-0.317775 6:-0.60344 7:-0.566412 8:-0.466902 9:-0.587546 10:0.220731 11:0.0509117 12:0.188372 13:0.0287231 14:-0.738527 15:-0.699448 16:-0.659603 17:-0.72824 18:-0.705966 19:-0.624318 20:-0.516974 21:-0.689069 
0 0 1 1:-0.692308 2:-0.863636 3:-1 4:-0.0769231 5:0.22017 6:-0.529573 7:-0.476615 8:-0.321463 9:-0.500229 10:0.215005 11:0.121463 12:0.352041 13:0.126134 14:-0.648036 15:-0.599571 16:-0.542163 17:-0.635227 18:-0.735407 19:-0.667681 20:-0.57361 21:-0.721993 
0 0 1 1:-0.730769 2:-0.886364 3:-1 4:-0.0769231 5:-0.0293267 6:-0.60344 7:-0.566412 8:-0.466902 9:-0.587546 10:0.220731 11:0.0509117 12:0.188372 13:0.0287231 14:-0.712656 15:-0.67404 16:-0.623841 17:-0.701827 18:-0.758137 19:-0.695442 20:-0.600947 21:-0.744896 
0 0 1 1:-0.778846 2:-0.909091 3:-1 4:-0.0769231 5:-0.130823 6:-0.63974 7:-0.574903 8:-0.454669 9:-0.61873 10:0.422974 11:0.319943 12:0.393814 13:0.287985 14:-0.589018 15:-0.533 16:-0.482649 17:-0.575265 18:-0.589318 19:-0.48377 20:-0.359168 21:-0.569106 
0 0 1 1:-0.807692 2:-0.931818 3:-1 4:-0.0769231 5:-0.506311 6:-0.837071 7:-0.7627 8:-0.680576 9:-0.823145 10:0.714547 11:0.675497 12:0.46568 13:0.552589 14:-0.911042 15:-0.897888 16:-0.89404 17:-0.909219 18:-0.875576 19:-0.846383 20:-0.819331 21:-0.8726 
0 0 1 1:-0.846154 2:-0.909091 3:-0.8 4:0.0769231 5:-0.114917 6:-0.584551 7:-0.487552 8:-0.305423 9:-0.551528 10:0.62347 11:0.59047 12:0.698784 13:0.58985 14:-0.74631 15:-0.708695 16:-0.680088 17:-0.73996 18:-0.787894 19:-0.731627 20:-0.668955 21:-0.780096 
0 0 1 1:-0.721154 2:-0.886364 3:-0.9 4:0.0769231 5:-0.327394 6:-0.901863 7:-0.846597 8:-0.755335 9:-0.890935 10:0.607157 11:0.475067 12:0.419157 13:0.417795 14:-0.865089 15:-0.844202 16:-0.847947 17:-0.863439 18:-0.840048 19:-0.796365 20:-0.778851 21:-0.836627 
0 0.464341061310564 1 1:-0.942308 2:-0.954545 3:-0.6 4:0.0769231 5:0.128942 6:-0.529573 7:-0.476615 8:-0.321463 9:-0.500229 10:0.215005 11:0.121463 12:0.352041 13:0.126134 14:-0.472589 15:-0.387063 16:-0.308609 17:-0.45098 18:-0.58761 19:-0.469153 20:-0.328382 21:-0.563991 
0 0 0.1715079472165593 1:-0.384615 2:-0.727273 3:-0.7 4:0.0769231 5:-0.279815 6:-0.524086 7:-0.44438 8:-0.2902 9:-0.493437 10:0.417135 11:0.358085 12:0.47585 13:0.337079 14:-0.918125 15:-0.911517 16:-0.908874 17:-0.918014 18:-0.917069 19:-0.90334 20:-0.887517 21:-0.917041 
0 0 1 1:-0.971154 2:-0.954545 3:-1 4:0.0769231 5:-0.492878 6:-0.524086 7:-0.44438 8:-0.2902 9:-0.493437 10:0.417135 11:0.358085 12:0.47585 13:0.337079 14:-0.907366 15:-0.895346 16:-0.882914 17:-0.904335 18:-0.85451 19:-0.817898 20:-0.766191 21:-0.847584 
0 0 1 1:-0.932692 2:-0.977273 3:-0.8 4:0.0769231 5:0.172741 6:-0.524086 7:-0.44438 8:-0.2902 9:-0.493437 10:0.417135 11:0.358085 12:0.47585 13:0.337079 14:-0.748348 15:-0.721601 16:-0.668079 17:-0.739516 18:-0.820419 19:-0.782077 20:-0.704238 21:-0.811809 
0 0 1 1:-0.836538 2:-0.909091 3:-0.8 4:0.0769231 5:0.128942 6:-0.529573 7:-0.476615 8:-0.321463 9:-0.500229 10:0.215005 11:0.121463 12:0.352041 13:0.126134 14:-0.472589 15:-0.387063 16:-0.308609 17:-0.45098 18:-0.58761 19:-0.469153 20:-0.328382 21:-0.563991 
0 0 1 1:-0.951923 2:-0.931818 3:-0.9 4:0.230769 5:-0.191359 6:-0.753284 7:-0.697942 8:-0.641158 9:-0.746114 10:0.536509 11:0.357533 12:0.202963 13:0.255796 14:-0.843712 15:-0.821851 16:-0.805828 17:-0.840515 18:-0.85033 19:-0.8126 20:-0.767413 21:-0.84556 
0 0.1301957070717005 0 1:-0.759615 2:-0.840909 3:-1 4:0.230769 5:-0.048023 6:-0.753284 7:-0.697942 8:-0.641158 9:-0.746114 10:0.536509 11:0.357533 12:0.202963 13:0.255796 14:-0.945937 15:-0.937418 16:-0.939073 17:-0.945509 18:-0.974603 19:-0.968321 20:-0.966971 21:-0.975442 
0 0 0.0106955171073746 1:-0.903846 2:-0.909091 3:-1 4:0.230769 5:-0.426911 6:-0.982166 7:-0.915096 8:-0.792578 9:-0.96666 10:1 11:1 12:1 13:1 14:-0.838036 15:-0.816461 16:-0.791523 17:-0.834861 18:-0.77049 19:-0.713192 20:-0.633037 21:-0.763126 
0.3017517079917556 0 1 1:-0.942308 2:-0.954545 3:-1 4:0.230769 5:-0.10642 6:1 7:1 8:1 9:1 10:0.318561 11:0.0448253 12:0.0751357 13:0.00692129 14:-0.741875 15:-0.707468 16:-0.678587 17:-0.736331 18:-0.780983 19:-0.725602 20:-0.66406 21:-0.77362 
0 0 1 1:-0.884615 2:-0.977273 3:-1 4:1 5:-0.26864 6:-0.60344 7:-0.566412 8:-0.466902 9:-0.587546 10:0.220731 11:0.0509117 12:0.188372 13:0.0287231 14:-0.763214 15:-0.731265 16:-0.691987 17:-0.754791 18:-0.725268 19:-0.653584 20:-0.549582 21:-0.710766 
0 0 1 1:-0.769231 2:-0.977273 3:-0.9 4:1 5:0.349159 6:1 7:1 8:1 9:1 10:0.318561 11:0.0448253 12:0.0751357 13:0.00692129 14:-0.530848 15:-0.459045 16:-0.386623 17:-0.512428 18:-0.681054 19:-0.592504 20:-0.480942 21:-0.663446 
0 0 1 1:-0.932692 2:-0.977273 3:-0.9 4:-1 5:-0.0143679 6:-0.700733 7:-0.675205 8:-0.571836 9:-0.693247 10:0.343148 11:0.0424596 12:0.208623 13:0.0702527 14:0.469464 15:0.506705 16:0.468344 17:0.448036 18:0.349152 19:0.531215 20:0.662366 21:0.350802 
0 0 1 1:-0.644231 2:-0.659091 3:-0.7 4:-1 5:0.128757 6:1 7:1 8:1 9:1 10:0.318561 11:0.0448253 12:0.0751357 13:0.00692129 14:1 15:1 16:1 17:1 18:0.621148 19:0.794547 20:1 21:0.64786 
0 0 1 1:-0.942308 2:-0.886364 3:-1 4:-1 5:-0.112373 6:-0.627394 7:-0.647719 8:-0.583254 9:-0.624673 10:-0.0911004 11:-0.411617 12:-0.143357 13:-0.397179 14:0.966964 15:0.778201 16:0.597086 17:0.935039 18:1 19:1 20:0.998881 21:1 
0 0 1 1:-0.894231 2:-0.954545 3:-0.5 4:-1 5:0.128757 6:0.00828365 7:-0.0440351 8:-0.0588555 9:-0.00728187 10:0.154339 11:-0.213547 12:-0.122632 13:-0.233349 14:1 15:1 16:1 17:1 18:0.621148 19:0.794547 20:1 21:0.64786 
0 0 1 1:-0.826923 2:-0.931818 3:-0.6 4:-1 5:0.417697 6:1 7:1 8:1 9:1 10:0.318561 11:0.0448253 12:0.0751357 13:0.00692129 14:-0.588393 15:-0.529713 16:-0.532715 17:-0.585791 18:-0.748683 19:-0.682799 20:-0.648456 21:-0.744185 
0 0 1 1:-0.634615 2:-0.931818 3:-1 4:-1 5:-0.411727 6:-0.76753 7:-0.73435 8:-0.653663 9:-0.751927 10:0.0113329 11:-0.0841887 12:0.0682834 13:-0.140747 14:-0.408661 15:-0.35564 16:-0.317616 17:-0.394851 18:-0.135895 19:0.0423471 20:0.231845 21:-0.101411 
0 0 1 1:-0.817308 2:-0.954545 3:-0.9 4:-1 5:-0.411727 6:-0.76753 7:-0.73435 8:-0.653663 9:-0.751927 10:0.0113329 11:-0.0841887 12:0.0682834 13:-0.140747 14:-0.408661 15:-0.35564 16:-0.317616 17:-0.394851 18:-0.135895 19:0.0423471 20:0.231845 21:-0.101411 
0 0 1 1:-0.788462 2:-0.977273 3:-0.8 4:-1 5:-0.0143679 6:1 7:1 8:1 9:1 10:0.318561 11:0.0448253 12:0.0751357 13:0.00692129 14:0.469464 15:0.506705 16:0.468344 17:0.448036 18:0.349152 19:0.531215 20:0.662366 21:0.350802 
0 0 1 1:-0.836538 2:-0.818182 3:-1 4:-1 5:0.128757 6:-0.491268 7:-0.448554 8:-0.352725 9:-0.47466 10:0.276396 11:0.104466 12:0.199474 13:0.0721879 14:1 15:1 16:1 17:1 18:0.621148 19:0.794547 20:1 21:0.64786 
0 0 1 1:-0.711538 2:-0.727273 3:-0.9 4:-1 5:0.0571946 6:-0.700733 7:-0.675205 8:-0.571836 9:-0.693247 10:0.343148 11:0.0424596 12:0.208623 13:0.0702527 14:0.734732 15:0.753353 16:0.734172 17:0.724018 18:0.48515 19:0.662881 20:0.831183 21:0.499331 
0 0 1 1:-0.875 2:-0.954545 3:-1 4:-1 5:-0.0143679 6:-0.790851 7:-0.772197 8:-0.731956 9:-0.794148 10:0.35415 11:-0.0220689 12:-0.0655685 13:-0.0702931 14:0.469464 15:0.506705 16:0.468344 17:0.448036 18:0.349152 19:0.531215 20:0.662366 21:0.350802 
0 0 1 1:-0.913462 2:-0.977273 3:-1 4:-1 5:0.0571946 6:-0.700733 7:-0.675205 8:-0.571836 9:-0.693247 10:0.343148 11:0.0424596 12:0.208623 13:0.0702527 14:0.734732 15:0.753353 16:0.734172 17:0.724018 18:0.48515 19:0.662881 20:0.831183 21:0.499331 
0 0 1 1:-0.576923 2:-0.931818 3:-0.7 4:-1 5:-0.242017 6:-0.131536 7:-0.298028 8:-0.47533 9:-0.188316 10:-0.137604 11:-0.694421 12:-0.605677 13:-0.725556 14:0.394911 15:0.325313 16:0.255982 17:0.38252 18:0.419522 19:0.477275 20:0.536565 21:0.426344 
0 0 1 1:-0.548077 2:-0.954545 3:-1 4:-1 5:-0.141485 6:-0.491268 7:-0.448554 8:-0.352725 9:-0.47466 10:0.276396 11:0.104466 12:0.199474 13:0.0721879 14:0.29567 15:0.32218 16:0.341192 17:0.302575 18:0.242626 19:0.418447 20:0.615923 21:0.273225 
0 0 1 1:-0.884615 2:-0.954545 3:-1 4:-1 5:-0.112373 6:-0.491268 7:-0.448554 8:-0.352725 9:-0.47466 10:0.276396 11:0.104466 12:0.199474 13:0.0721879 14:0.966964 15:0.778201 16:0.597086 17:0.935039 18:1 19:1 20:0.998881 21:1 
0 0 1 1:-0.663462 2:-0.977273 3:0.1 4:-1 5:-0.30684 6:-0.63974 7:-0.574903 8:-0.454669 9:-0.61873 10:0.422974 11:0.319943 12:0.393814 13:0.287985 14:0.108884 15:0.0988693 16:0.0854305 17:0.10626 18:0.129283 19:0.215912 20:0.305407 21:0.139516 
0 0 1 1:-0.855769 2:-0.954545 3:-0.9 4:-1 5:-0.411727 6:-0.60344 7:-0.566412 8:-0.466902 9:-0.587546 10:0.220731 11:0.0509117 12:0.188372 13:0.0287231 14:-0.408661 15:-0.35564 16:-0.317616 17:-0.394851 18:-0.135895 19:0.0423471 20:0.231845 21:-0.101411 
0 0 1 1:-0.932692 2:-0.954545 3:-1 4:-1 5:1 6:-0.902496 7:-0.840265 8:-0.732228 9:-0.883915 10:0.401126 11:0.438144 12:0.495378 13:0.373819 14:-0.755625 15:-0.714567 16:-0.680265 17:-0.745487 18:-0.905474 19:-0.878309 20:-0.843595 21:-0.900576 
0 0 1 1:-0.884615 2:-0.909091 3:-0.8 4:-1 5:0.128757 6:-0.491268 7:-0.448554 8:-0.352725 9:-0.47466 10:0.276396 11:0.104466 12:0.199474 13:0.0721879 14:1 15:1 16:1 17:1 18:0.621148 19:0.794547 20:1 21:0.64786 
0 0 1 1:-0.740385 2:-0.909091 3:-0.8 4:0.384615 5:0.0460957 6:1 7:1 8:1 9:1 10:0.318561 11:0.0448253 12:0.0751357 13:0.00692129 14:0.0454018 15:-0.045096 16:-0.136026 17:0.0294257 18:0.0374953 19:0.0425503 20:0.0467669 21:0.0373204 
0 0 1 1:-0.769231 2:-0.863636 3:-0.8 4:0.384615 5:-0.0143679 6:-0.700733 7:-0.675205 8:-0.571836 9:-0.693247 10:0.343148 11:0.0424596 12:0.208623 13:0.0702527 14:0.469464 15:0.506705 16:0.468344 17:0.448036 18:0.349152 19:0.531215 20:0.662366 21:0.350802 
0 0 1 1:-0.913462 2:-0.954545 3:-1 4:0.384615 5:0.128757 6:-0.897325 7:-0.863865 8:-0.784967 9:-0.890903 10:0.322467 11:0.072866 12:0.139307 13:0.0470994 14:1 15:1 16:1 17:1 18:0.621148 19:0.794547 20:1 21:0.64786 
0 0 1 1:-0.951923 2:-0.954545 3:-0.6 4:0.384615 5:0.128757 6:-0.897325 7:-0.863865 8:-0.784967 9:-0.890903 10:0.322467 11:0.072866 12:0.139307 13:0.0470994 14:1 15:1 16:1 17:1 18:0.621148 19:0.794547 20:1 21:0.64786 
0.01350992337756218 0 1 1:-0.961538 2:-0.977273 3:-0.5 4:0.384615 5:0.128757 6:-0.897325 7:-0.863865 8:-0.784967 9:-0.890903 10:0.322467 11:0.072866 12:0.139307 13:0.0470994 14:1 15:1 16:1 17:1 18:0.621148 19:0.794547 20:1 21:0.64786 
0 0 1 1:-0.75 2:-0.886364 3:-0.9 4:0.384615 5:-0.0143679 6:-0.790851 7:-0.772197 8:-0.731956 9:-0.794148 10:0.35415 11:-0.0220689 12:-0.0655685 13:-0.0702931 14:0.469464 15:0.506705 16:0.468344 17:0.448036 18:0.349152 19:0.531215 20:0.662366 21:0.350802 
0 0 1 1:-0.586538 2:-0.954545 3:-0.9 4:-0.538462 5:0.353614 6:1 7:1 8:1 9:1 10:0.318561 11:0.0448253 12:0.0751357 13:0.00692129 14:-0.680833 15:-0.634981 16:-0.612627 17:-0.674304 18:-0.774337 19:-0.716333 20:-0.66686 21:-0.767784 
0 0 1 1:-0.567308 2:-0.795455 3:-0.7 4:0.384615 5:-0.0143679 6:-0.424682 7:-0.446971 8:-0.503058 9:-0.449419 10:0.303135 11:-0.149364 12:-0.252093 13:-0.217829 14:0.469464 15:0.506705 16:0.468344 17:0.448036 18:0.349152 19:0.531215 20:0.662366 21:0.350802 
0 0 1 1:-0.894231 2:-0.954545 3:-0.7 4:0.384615 5:-0.0143679 6:-0.424682 7:-0.446971 8:-0.503058 9:-0.449419 10:0.303135 11:-0.149364 12:-0.252093 13:-0.217829 14:0.469464 15:0.506705 16:0.468344 17:0.448036 18:0.349152 19:0.531215 20:0.662366 21:0.350802 
0 0 1 1:-0.653846 2:-0.863636 3:-0.5 4:0.384615 5:-0.0143679 6:-0.424682 7:-0.446971 8:-0.503058 9:-0.449419 10:0.303135 11:-0.149364 12:-0.252093 13:-0.217829 14:0.469464 15:0.506705 16:0.468344 17:0.448036 18:0.349152 19:0.531215 20:0.662366 21:0.350802 
0 0 1 1:-0.788462 2:-0.931818 3:-0.6 4:0.384615 5:0.0571946 6:-0.789585 7:-0.780688 8:-0.69879 9:-0.78236 10:-0.00781142 11:-0.276691 12:-0.0258612 13:-0.266368 14:0.734732 15:0.753353 16:0.734172 17:0.724018 18:0.48515 19:0.662881 20:0.831183 21:0.499331 
0 0 1 1:-0.403846 2:-0.886364 3:-1 4:0.384615 5:-0.163278 6:-0.491268 7:-0.448554 8:-0.352725 9:-0.47466 10:0.276396 11:0.104466 12:0.199474 13:0.0721879 14:-0.930268 15:-0.9269 16:-0.924901 17:-0.930567 18:-0.952542 19:-0.949123 20:-0.939123 21:-0.953616 
0 0 1 1:-0.875 2:-0.909091 3:-0.8 4:0.384615 5:0.128757 6:-0.424682 7:-0.446971 8:-0.503058 9:-0.449419 10:0.303135 11:-0.149364 12:-0.252093 13:-0.217829 14:1 15:1 16:1 17:1 18:0.621148 19:0.794547 20:1 21:0.64786 
0 0 1 1:-0.932692 2:-0.954545 3:-1 4:0.384615 5:0.0571946 6:-0.424682 7:-0.446971 8:-0.503058 9:-0.449419 10:0.303135 11:-0.149364 12:-0.252093 13:-0.217829 14:0.734732 15:0.753353 16:0.734172 17:0.724018 18:0.48515 19:0.662881 20:0.831183 21:0.499331 
0 0 1 1:-0.721154 2:-0.954545 3:-0.9 4:0.384615 5:-0.0143679 6:-0.424682 7:-0.446971 8:-0.503058 9:-0.449419 10:0.303135 11:-0.149364 12:-0.252093 13:-0.217829 14:0.469464 15:0.506705 16:0.468344 17:0.448036 18:0.349152 19:0.531215 20:0.662366 21:0.350802 
0 0 1 1:-0.788462 2:-0.931818 3:-0.8 4:0.384615 5:0.368368 6:1 7:1 8:1 9:1 10:0.318561 11:0.0448253 12:0.0751357 13:0.00692129 14:-0.878214 15:-0.871549 16:-0.869404 17:-0.878687 18:-0.937616 19:-0.93052 20:-0.9202 21:-0.938501 
0 0 1 1:-0.980769 2:-0.954545 3:-0.7 4:0.384615 5:-0.0143679 6:-0.424682 7:-0.446971 8:-0.503058 9:-0.449419 10:0.303135 11:-0.149364 12:-0.252093 13:-0.217829 14:0.469464 15:0.506705 16:0.468344 17:0.448036 18:0.349152 19:0.531215 20:0.662366 21:0.350802 
0 0 1 1:-0.980769 2:-0.954545 3:-0.7 4:0.384615 5:-0.0143679 6:-0.424682 7:-0.446971 8:-0.503058 9:-0.449419 10:0.303135 11:-0.149364 12:-0.252093 13:-0.217829 14:0.469464 15:0.506705 16:0.468344 17:0.448036 18:0.349152 19:0.531215 20:0.662366 21:0.350802 
0 0 1 1:-0.894231 2:-0.977273 3:-0.9 4:0.384615 5:-0.0143679 6:-0.790851 7:-0.772197 8:-0.731956 9:-0.794148 10:0.35415 11:-0.0220689 12:-0.0655685 13:-0.0702931 14:0.469464 15:0.506705 16:0.468344 17:0.448036 18:0.349152 19:0.531215 20:0.662366 21:0.350802 
0 0 1 1:-0.605769 2:-0.818182 3:-0.5 4:-0.846154 5:-0.112373 6:-0.131536 7:-0.298028 8:-0.47533 9:-0.188316 10:-0.137604 11:-0.694421 12:-0.605677 13:-0.725556 14:0.966964 15:0.778201 16:0.597086 17:0.935039 18:1 19:1 20:0.998881 21:1 
0 0 1 1:-0.951923 2:-0.977273 3:-0.2 4:-0.846154 5:0.128757 6:-0.950298 7:-0.96978 8:-1 9:-0.972864 10:0.119541 11:-0.726037 12:-1 13:-0.830617 14:1 15:1 16:1 17:1 18:0.621148 19:0.794547 20:1 21:0.64786 
0 0 1 1:-0.846154 2:-0.977273 3:-1 4:-0.846154 5:0.128757 6:-0.131536 7:-0.298028 8:-0.47533 9:-0.188316 10:-0.137604 11:-0.694421 12:-0.605677 13:-0.725556 14:1 15:1 16:1 17:1 18:0.621148 19:0.794547 20:1 21:0.64786 
0 0 1 1:-0.865385 2:-0.954545 3:-0.7 4:-0.846154 5:0.128757 6:-0.131536 7:-0.298028 8:-0.47533 9:-0.188316 10:-0.137604 11:-0.694421 12:-0.605677 13:-0.725556 14:1 15:1 16:1 17:1 18:0.621148 19:0.794547 20:1 21:0.64786 
0 0 1 1:-0.817308 2:-0.931818 3:-0.8 4:-1 5:-0.0143679 6:-0.790851 7:-0.772197 8:-0.731956 9:-0.794148 10:0.35415 11:-0.0220689 12:-0.0655685 13:-0.0702931 14:0.469464 15:0.506705 16:0.468344 17:0.448036 18:0.349152 19:0.531215 20:0.662366 21:0.350802 
0 0 1 1:-0.971154 2:-0.954545 3:-0.5 4:-0.846154 5:0.128757 6:1 7:1 8:1 9:1 10:0.318561 11:0.0448253 12:0.0751357 13:0.00692129 14:1 15:1 16:1 17:1 18:0.621148 19:0.794547 20:1 21:0.64786 
0 0 1 1:-0.788462 2:-0.931818 3:-0.8 4:-0.846154 5:0.128757 6:-0.424682 7:-0.446971 8:-0.503058 9:-0.449419 10:0.303135 11:-0.149364 12:-0.252093 13:-0.217829 14:1 15:1 16:1 17:1 18:0.621148 19:0.794547 20:1 21:0.64786 
0 0 1 1:-0.923077 2:-0.954545 3:-0.8 4:-0.846154 5:-0.0143679 6:-0.700733 7:-0.675205 8:-0.571836 9:-0.693247 10:0.343148 11:0.0424596 12:0.208623 13:0.0702527 14:0.469464 15:0.506705 16:0.468344 17:0.448036 18:0.349152 19:0.531215 20:0.662366 21:0.350802 
0 0 1 1:-0.826923 2:-0.772727 3:-0.8 4:-0.846154 5:-0.0143679 6:1 7:1 8:1 9:1 10:0.318561 11:0.0448253 12:0.0751357 13:0.00692129 14:0.469464 15:0.506705 16:0.468344 17:0.448036 18:0.349152 19:0.531215 20:0.662366 21:0.350802 
0 0 1 1:-0.951923 2:-0.977273 3:-0.3 4:-0.846154 5:0.128757 6:0.00828365 7:-0.0440351 8:-0.0588555 9:-0.00728187 10:0.154339 11:-0.213547 12:-0.122632 13:-0.233349 14:1 15:1 16:1 17:1 18:0.621148 19:0.794547 20:1 21:0.64786 
0 0 1 1:-0.807692 2:-0.954545 3:-0.2 4:-0.846154 5:-0.427405 6:-0.131536 7:-0.298028 8:-0.47533 9:-0.188316 10:-0.137604 11:-0.694421 12:-0.605677 13:-0.725556 14:0.0923661 15:-0.01203 16:-0.116026 17:0.0737794 18:0.318709 19:0.318639 20:0.304848 21:0.315585 
0 0 1 1:-0.692308 2:-0.977273 3:-0.9 4:-0.846154 5:-0.112373 6:0.00828365 7:-0.0440351 8:-0.0588555 9:-0.00728187 10:0.154339 11:-0.213547 12:-0.122632 13:-0.233349 14:0.966964 15:0.778201 16:0.597086 17:0.935039 18:1 19:1 20:0.998881 21:1 
0 0 1 1:-0.932692 2:-0.954545 3:-0.5 4:-0.846154 5:-0.742436 6:-1 7:-1 8:-0.95596 9:-1 10:-0.489614 11:-0.857929 12:-0.606317 13:-0.898167 14:-0.782232 15:-0.802261 16:-0.829139 17:-0.78748 18:-0.362581 19:-0.362722 20:-0.389185 21:-0.368829 
0 0 1 1:-0.778846 2:-0.977273 3:-0.9 4:-0.846154 5:-0.112373 6:-0.131536 7:-0.298028 8:-0.47533 9:-0.188316 10:-0.137604 11:-0.694421 12:-0.605677 13:-0.725556 14:0.966964 15:0.778201 16:0.597086 17:0.935039 18:1 19:1 20:0.998881 21:1 
0 0 1 1:-0.932692 2:-0.931818 3:-1 4:-0.846154 5:-0.0633705 6:0.00828365 7:-0.0440351 8:-0.0588555 9:-0.00728187 10:0.154339 11:-0.213547 12:-0.122632 13:-0.233349 14:0.718214 15:0.642453 16:0.532715 17:0.691538 18:0.674576 19:0.765608 20:0.830624 21:0.675401 
0 0 1 1:-0.951923 2:-0.931818 3:-0.8 4:-0.846154 5:-0.112373 6:-0.131536 7:-0.298028 8:-0.47533 9:-0.188316 10:-0.137604 11:-0.694421 12:-0.605677 13:-0.725556 14:0.966964 15:0.778201 16:0.597086 17:0.935039 18:1 19:1 20:0.998881 21:1 
0 0 1 1:-0.980769 2:-0.977273 3:-0.2 4:-0.846154 5:-0.112373 6:-1 7:-1 8:-0.95596 9:-1 10:-0.489614 11:-0.857929 12:-0.606317 13:-0.898167 14:0.966964 15:0.778201 16:0.597086 17:0.935039 18:1 19:1 20:0.998881 21:1 
0 0 1 1:-0.894231 2:-0.977273 3:-0.8 4:-0.846154 5:-0.112373 6:-0.131536 7:-0.298028 8:-0.47533 9:-0.188316 10:-0.137604 11:-0.694421 12:-0.605677 13:-0.725556 14:0.966964 15:0.778201 16:0.597086 17:0.935039 18:1 19:1 20:0.998881 21:1 
0 0 1 1:-0.846154 2:-0.977273 3:-0.1 4:-0.846154 5:0.00819195 6:-0.960112 7:-0.95467 8:-0.884192 9:-0.942463 10:-1 11:-0.928019 12:-0.421593 13:-1 14:0.983482 15:0.889101 16:0.798543 17:0.967519 18:0.810574 19:0.897273 20:0.999441 21:0.82393 
0 0 1 1:-0.903846 2:-0.977273 3:-0.8 4:-0.846154 5:-0.112373 6:-0.627394 7:-0.647719 8:-0.583254 9:-0.624673 10:-0.0911004 11:-0.411617 12:-0.143357 13:-0.397179 14:0.966964 15:0.778201 16:0.597086 17:0.935039 18:1 19:1 20:0.998881 21:1 
0 0 1 1:-0.759615 2:-0.909091 3:-0.8 4:-0.846154 5:0.00819195 6:-0.614204 7:-0.705713 8:-0.667799 9:-0.61393 10:-0.663468 11:-1 12:-0.502076 13:-0.964163 14:0.983482 15:0.889101 16:0.798543 17:0.967519 18:0.810574 19:0.897273 20:0.999441 21:0.82393 
0 0 1 1:-0.903846 2:-0.977273 3:-1 4:-0.846154 5:0.00819195 6:-0.131536 7:-0.298028 8:-0.47533 9:-0.188316 10:-0.137604 11:-0.694421 12:-0.605677 13:-0.725556 14:0.983482 15:0.889101 16:0.798543 17:0.967519 18:0.810574 19:0.897273 20:0.999441 21:0.82393 
0 0 1 1:-0.807692 2:-0.886364 3:-0.9 4:-0.846154 5:-0.112373 6:-0.131536 7:-0.298028 8:-0.47533 9:-0.188316 10:-0.137604 11:-0.694421 12:-0.605677 13:-0.725556 14:0.966964 15:0.778201 16:0.597086 17:0.935039 18:1 19:1 20:0.998881 21:1 
0 0 1 1:-0.990385 2:-0.954545 3:-1 4:-0.846154 5:0.00819195 6:0.00828365 7:-0.0440351 8:-0.0588555 9:-0.00728187 10:0.154339 11:-0.213547 12:-0.122632 13:-0.233349 14:0.983482 15:0.889101 16:0.798543 17:0.967519 18:0.810574 19:0.897273 20:0.999441 21:0.82393 
0 0 1 1:-0.817308 2:-0.909091 3:-0.8 4:-0.846154 5:-0.30684 6:-0.614204 7:-0.705713 8:-0.667799 9:-0.61393 10:-0.663468 11:-1 12:-0.502076 13:-0.964163 14:0.108884 15:0.0988693 16:0.0854305 17:0.10626 18:0.129283 19:0.215912 20:0.305407 21:0.139516 
0 0 1 1:-0.836538 2:-0.977273 3:-0.8 4:-0.846154 5:0.00819195 6:-0.614204 7:-0.705713 8:-0.667799 9:-0.61393 10:-0.663468 11:-1 12:-0.502076 13:-0.964163 14:0.983482 15:0.889101 16:0.798543 17:0.967519 18:0.810574 19:0.897273 20:0.999441 21:0.82393 
0 0 1 1:-0.855769 2:-0.954545 3:-0.7 4:-0.846154 5:-0.112373 6:0.00828365 7:-0.0440351 8:-0.0588555 9:-0.00728187 10:0.154339 11:-0.213547 12:-0.122632 13:-0.233349 14:0.966964 15:0.778201 16:0.597086 17:0.935039 18:1 19:1 20:0.998881 21:1 
0 0 1 1:-0.961538 2:-0.977273 3:-1 4:-0.846154 5:-0.112373 6:0.00828365 7:-0.0440351 8:-0.0588555 9:-0.00728187 10:0.154339 11:-0.213547 12:-0.122632 13:-0.233349 14:0.966964 15:0.778201 16:0.597086 17:0.935039 18:1 19:1 20:0.998881 21:1 
0 0 1 1:-0.990385 2:-0.977273 3:-0.9 4:-0.846154 5:0.128757 6:0.00828365 7:-0.0440351 8:-0.0588555 9:-0.00728187 10:0.154339 11:-0.213547 12:-0.122632 13:-0.233349 14:1 15:1 16:1 17:1 18:0.621148 19:0.794547 20:1 21:0.64786 
0 0 1 1:-0.846154 2:-0.954545 3:-0.9 4:-0.846154 5:-0.120494 6:0.00828365 7:-0.0440351 8:-0.0588555 9:-0.00728187 10:0.154339 11:-0.213547 12:-0.122632 13:-0.233349 14:-0.782768 15:-0.759532 16:-0.744901 17:-0.780537 18:-0.794663 19:-0.750071 20:-0.702324 21:-0.790341 
0 0 1 1:-0.951923 2:-0.977273 3:-1 4:-0.846154 5:-0.411727 6:-0.491268 7:-0.448554 8:-0.352725 9:-0.47466 10:0.276396 11:0.104466 12:0.199474 13:0.0721879 14:-0.408661 15:-0.35564 16:-0.317616 17:-0.394851 18:-0.135895 19:0.0423471 20:0.231845 21:-0.101411 
0 0 1 1:-0.836538 2:-0.977273 3:-0.8 4:-0.846154 5:-0.141485 6:-0.491268 7:-0.448554 8:-0.352725 9:-0.47466 10:0.276396 11:0.104466 12:0.199474 13:0.0721879 14:0.29567 15:0.32218 16:0.341192 17:0.302575 18:0.242626 19:0.418447 20:0.615923 21:0.273225 
0 0 1 1:-0.971154 2:-0.977273 3:-0.8 4:0.538462 5:-0.0143679 6:1 7:1 8:1 9:1 10:0.318561 11:0.0448253 12:0.0751357 13:0.00692129 14:0.469464 15:0.506705 16:0.468344 17:0.448036 18:0.349152 19:0.531215 20:0.662366 21:0.350802 
0 0 1 1:-0.894231 2:-0.863636 3:-0.8 4:0.538462 5:0.128757 6:1 7:1 8:1 9:1 10:0.318561 11:0.0448253 12:0.0751357 13:0.00692129 14:1 15:1 16:1 17:1 18:0.621148 19:0.794547 20:1 21:0.64786 
0 0 1 1:-0.807692 2:-0.931818 3:-0.9 4:-0.692308 5:0.346451 6:-0.60344 7:-0.566412 8:-0.466902 9:-0.587546 10:0.220731 11:0.0509117 12:0.188372 13:0.0287231 14:-0.659911 15:-0.619774 16:-0.560795 17:-0.648184 18:-0.786464 19:-0.738296 20:-0.656908 21:-0.776272 
0 0 1 1:-0.903846 2:-0.931818 3:-0.9 4:-0.692308 5:-0.0958153 6:-0.60344 7:-0.566412 8:-0.466902 9:-0.587546 10:0.220731 11:0.0509117 12:0.188372 13:0.0287231 14:-0.789554 15:-0.770773 16:-0.734967 17:-0.783828 18:-0.809857 19:-0.772377 20:-0.703506 21:-0.802563 
0 0.7528484607017079 1 1:-0.923077 2:-0.954545 3:-0.8 4:-0.692308 5:-0.0901008 6:-0.60344 7:-0.566412 8:-0.466902 9:-0.587546 10:0.220731 11:0.0509117 12:0.188372 13:0.0287231 14:-0.803839 15:-0.783855 16:-0.753113 17:-0.798895 18:-0.822588 19:-0.785514 20:-0.723504 21:-0.816199 
0 0.2037213303925201 1 1:-0.942308 2:-0.931818 3:-0.8 4:-0.692308 5:0.569376 6:-0.529573 7:-0.476615 8:-0.321463 9:-0.500229 10:0.215005 11:0.121463 12:0.352041 13:0.126134 14:-0.589107 15:-0.531028 16:-0.464636 17:-0.573877 18:-0.774497 19:-0.715856 20:-0.633501 21:-0.7629 
0 0 1 1:-0.846154 2:-0.931818 3:-0.9 4:-0.692308 5:0.221956 6:-0.524086 7:-0.44438 8:-0.2902 9:-0.493437 10:0.417135 11:0.358085 12:0.47585 13:0.337079 14:-0.765982 15:-0.734683 16:-0.679205 17:-0.756541 18:-0.842407 19:-0.803417 20:-0.728161 21:-0.833974 
0 0 1 1:-0.846154 2:-0.931818 3:-0.7 4:0.692308 5:0.0246161 6:-0.529573 7:-0.476615 8:-0.321463 9:-0.500229 10:0.215005 11:0.121463 12:0.352041 13:0.126134 14:-0.797143 15:-0.773731 16:-0.741634 17:-0.790646 18:-0.849124 19:-0.815651 20:-0.760561 21:-0.842494 
0 0.3614618374216215 0 1:-0.798077 2:-0.909091 3:-0.7 4:0.692308 5:-0.365472 6:-0.940168 7:-0.902432 8:-0.820307 9:-0.934757 10:0.506888 11:0.221413 12:0.235682 13:0.204588 14:-0.872009 15:-0.857349 16:-0.849272 17:-0.870619 18:-0.863726 19:-0.832655 20:-0.801856 21:-0.861149 
0 0 1 1:-0.846154 2:-0.931818 3:-0.8 4:0.846154 5:-0.653943 6:-0.524086 7:-0.44438 8:-0.2902 9:-0.493437 10:0.417135 11:0.358085 12:0.47585 13:0.337079 14:-0.971339 15:-0.969761 16:-0.963709 17:-0.970755 18:-0.94711 19:-0.941317 20:-0.916915 21:-0.946303 
0.04541879466996903 0 1 1:-0.798077 2:-0.5 3:-0.8 4:0.846154 5:-0.411727 6:-0.491268 7:-0.448554 8:-0.352725 9:-0.47466 10:0.276396 11:0.104466 12:0.199474 13:0.0721879 14:-0.408661 15:-0.35564 16:-0.317616 17:-0.394851 18:-0.135895 19:0.0423471 20:0.231845 21:-0.101411 
0.6958745291734836 0 1 1:-0.913462 2:-0.931818 3:-0.7 4:-0.538462 5:-0.431951 6:1 7:1 8:1 9:1 10:0.318561 11:0.0448253 12:0.0751357 13:0.00692129 14:-0.868482 15:-0.852288 16:-0.848344 17:-0.867383 18:-0.843867 19:-0.809603 20:-0.787091 21:-0.842376 
0 0 1 1:-0.903846 2:-0.954545 3:-0.9 4:-0.538462 5:-0.652531 6:-0.904184 7:-0.848323 8:-0.772733 9:-0.895441 10:0.642633 11:0.503996 12:0.339872 13:0.406462 14:-0.84942 15:-0.833881 16:-0.824901 17:-0.847581 18:-0.657944 19:-0.584847 20:-0.522428 21:-0.650425 
0 0 1 1:-0.826923 2:-0.909091 3:-1 4:-0.538462 5:-0.0742174 6:-0.904184 7:-0.848323 8:-0.772733 9:-0.895441 10:0.642633 11:0.503996 12:0.339872 13:0.406462 14:-0.845268 15:-0.826979 16:-0.790464 17:-0.838027 18:-0.86699 19:-0.837026 20:-0.773337 21:-0.859012 
0 0 1 1:-0.990385 2:-0.977273 3:-0.6 4:-0.538462 5:0.633325 6:-0.904184 7:-0.848323 8:-0.772733 9:-0.895441 10:0.642633 11:0.503996 12:0.339872 13:0.406462 14:-0.663795 15:-0.614515 16:-0.592583 17:-0.658515 18:-0.818221 19:-0.7702 20:-0.729714 21:-0.813744 
0 0 1 1:-0.951923 2:-0.977273 3:-0.9 4:-0.538462 5:-0.737354 6:-0.904184 7:-0.848323 8:-0.772733 9:-0.895441 10:0.642633 11:0.503996 12:0.339872 13:0.406462 14:-0.873482 15:-0.862608 16:-0.873642 17:-0.874688 18:-0.640646 19:-0.569602 20:-0.560618 21:-0.639436 
0 0 1 1:-0.923077 2:-0.931818 3:-0.9 4:-0.538462 5:-0.111078 6:-0.584551 7:-0.487552 8:-0.305423 9:-0.551528 10:0.62347 11:0.59047 12:0.698784 13:0.58985 14:-0.712969 15:-0.675552 16:-0.634106 17:-0.703695 18:-0.715085 19:-0.645934 20:-0.550901 21:-0.702226 
0 0 1 1:-0.942308 2:-0.954545 3:-0.6 4:-0.538462 5:-0.283506 6:-0.524086 7:-0.44438 8:-0.2902 9:-0.493437 10:0.417135 11:0.358085 12:0.47585 13:0.337079 14:-0.860313 15:-0.838614 16:-0.817086 17:-0.854788 18:-0.865643 19:-0.829636 20:-0.782328 21:-0.859028 
0 0 1 1:-0.682692 2:-0.954545 3:-0.9 4:-0.538462 5:0.443813 6:-0.63974 7:-0.574903 8:-0.454669 9:-0.61873 10:0.422974 11:0.319943 12:0.393814 13:0.287985 14:0.10567 15:0.031817 16:-0.0415894 17:0.0947759 18:0.0472631 19:0.0608454 20:0.0776429 21:0.0497121 
0 0 1 1:-0.711538 2:-0.931818 3:-0.9 4:-0.538462 5:-0.223245 6:1 7:1 8:1 9:1 10:0.318561 11:0.0448253 12:0.0751357 13:0.00692129 14:-0.691071 15:-0.644984 16:-0.606821 17:-0.681956 18:-0.695477 19:-0.61476 20:-0.521122 21:-0.682338 
0 0 1 1:-0.942308 2:-0.954545 3:-1 4:-0.0769231 5:-0.0143679 6:0.00828365 7:-0.0440351 8:-0.0588555 9:-0.00728187 10:0.154339 11:-0.213547 12:-0.122632 13:-0.233349 14:0.469464 15:0.506705 16:0.468344 17:0.448036 18:0.349152 19:0.531215 20:0.662366 21:0.350802 
0 0 1 1:-0.971154 2:-0.977273 3:-0.8 4:-0.0769231 5:-0.160655 6:-0.524086 7:-0.44438 8:-0.2902 9:-0.493437 10:0.417135 11:0.358085 12:0.47585 13:0.337079 14:-0.788143 15:-0.757823 16:-0.728795 17:-0.780964 18:-0.800612 19:-0.748565 20:-0.686167 21:-0.791553 
0 0 1 1:-0.826923 2:-0.909091 3:-0.8 4:-0.0769231 5:-0.0808689 6:1 7:1 8:1 9:1 10:0.318561 11:0.0448253 12:0.0751357 13:0.00692129 14:-0.774821 15:-0.748225 16:-0.735894 17:-0.772343 18:-0.795857 19:-0.748871 20:-0.704416 21:-0.791409 
0 0 1 1:-0.634615 2:-0.863636 3:-0.7 4:-0.0769231 5:0.071553 6:-0.60344 7:-0.566412 8:-0.466902 9:-0.587546 10:0.220731 11:0.0509117 12:0.188372 13:0.0287231 14:-0.695238 15:-0.658734 16:-0.606269 17:-0.684766 18:-0.743385 19:-0.682641 20:-0.589215 21:-0.730908 
0 0 1 1:-0.951923 2:-0.977273 3:-1 4:-0.0769231 5:0.219277 6:-0.529573 7:-0.476615 8:-0.321463 9:-0.500229 10:0.215005 11:0.121463 12:0.352041 13:0.126134 14:-0.589063 15:-0.532014 16:-0.473642 17:-0.574571 18:-0.681908 19:-0.599813 20:-0.496335 21:-0.666003 
0 0 1 1:-0.932692 2:-0.977273 3:-1 4:-0.0769231 5:0.349159 6:-0.529573 7:-0.476615 8:-0.321463 9:-0.500229 10:0.215005 11:0.121463 12:0.352041 13:0.126134 14:-0.530848 15:-0.459045 16:-0.386623 17:-0.512428 18:-0.681054 19:-0.592504 20:-0.480942 21:-0.663446 
0 0 1 1:-0.75 2:-0.863636 3:-0.9 4:-0.0769231 5:0.0398169 6:-0.529573 7:-0.476615 8:-0.321463 9:-0.500229 10:0.215005 11:0.121463 12:0.352041 13:0.126134 14:-0.766786 15:-0.729819 16:-0.691921 17:-0.757124 18:-0.81347 19:-0.761343 20:-0.692036 21:-0.803126 
0 0 1 1:-0.759615 2:-0.863636 3:-0.9 4:-0.0769231 5:-0.467616 6:-0.60344 7:-0.566412 8:-0.466902 9:-0.587546 10:0.220731 11:0.0509117 12:0.188372 13:0.0287231 14:-0.770089 15:-0.738233 16:-0.710066 17:-0.762331 18:-0.709774 19:-0.633798 20:-0.545724 21:-0.695598 
0 0 1 1:-0.913462 2:-0.909091 3:-1 4:-0.0769231 5:0.0303684 6:-0.529573 7:-0.476615 8:-0.321463 9:-0.500229 10:0.215005 11:0.121463 12:0.352041 13:0.126134 14:-0.802277 15:-0.780831 16:-0.741854 17:-0.795326 18:-0.845442 19:-0.812018 20:-0.746824 21:-0.837964 
0 0.398932015223404 1 1:-0.932692 2:-0.931818 3:-1 4:0.0769231 5:-0.288401 6:-0.753284 7:-0.697942 8:-0.641158 9:-0.746114 10:0.536509 11:0.357533 12:0.202963 13:0.255796 14:-0.928661 15:-0.925914 16:-0.932848 17:-0.930248 18:-0.929542 19:-0.92256 20:-0.924007 21:-0.93194 
0 0 1 1:-1 2:-0.977273 3:-0.6 4:0.0769231 5:-0.226485 6:1 7:1 8:1 9:1 10:0.318561 11:0.0448253 12:0.0751357 13:0.00692129 14:-0.587768 15:-0.546279 16:-0.522252 17:-0.579501 18:-0.466473 19:-0.352663 20:-0.237331 21:-0.446944 
0 0 1 1:-0.846154 2:-0.909091 3:-0.6 4:0.0769231 5:-0.183453 6:-0.584551 7:-0.487552 8:-0.305423 9:-0.551528 10:0.62347 11:0.59047 12:0.698784 13:0.58985 14:-0.666964 15:-0.617232 16:-0.572804 17:-0.654946 18:-0.693048 19:-0.610919 20:-0.51434 21:-0.677944 
0 0 1 1:-0.855769 2:-0.886364 3:-1 4:0.0769231 5:-0.160107 6:-0.529573 7:-0.476615 8:-0.321463 9:-0.500229 10:0.215005 11:0.121463 12:0.352041 13:0.126134 14:-0.69683 15:-0.651952 16:-0.616026 17:-0.688128 18:-0.731987 19:-0.660741 20:-0.581737 21:-0.720854 
0 0 1 1:-0.875 2:-0.977273 3:-0.7 4:0.0769231 5:-0.246223 6:1 7:1 8:1 9:1 10:0.318561 11:0.0448253 12:0.0751357 13:0.00692129 14:-0.789077 15:-0.758261 16:-0.73426 17:-0.783189 18:-0.800596 19:-0.747928 20:-0.689528 21:-0.792639 
0 0 1 1:-0.798077 2:-0.977273 3:-0.7 4:0.0769231 5:0.128953 6:-0.524086 7:-0.44438 8:-0.2902 9:-0.493437 10:0.417135 11:0.358085 12:0.47585 13:0.337079 14:-0.751756 15:-0.722062 16:-0.684415 17:-0.744163 18:-0.831799 19:-0.794616 20:-0.737521 21:-0.825147 
0 0.1641047583061955 1 1:-0.971154 2:-0.931818 3:-0.9 4:0.0769231 5:-0.162288 6:-0.901863 7:-0.846597 8:-0.755335 9:-0.890935 10:0.607157 11:0.475067 12:0.419157 13:0.417795 14:-0.834464 15:-0.809558 16:-0.781457 17:-0.82732 18:-0.847755 19:-0.807556 20:-0.748616 21:-0.839072 
0.07414627308203074 0 1 1:-0.932692 2:-0.977273 3:-0.8 4:0.0769231 5:-0.411727 6:1 7:1 8:1 9:1 10:0.318561 11:0.0448253 12:0.0751357 13:0.00692129 14:-0.408661 15:-0.35564 16:-0.317616 17:-0.394851 18:-0.135895 19:0.0423471 20:0.231845 21:-0.101411 
0 0 1 1:-0.932692 2:-0.977273 3:-0.9 4:0.0769231 5:-0.288401 6:-0.753284 7:-0.697942 8:-0.641158 9:-0.746114 10:0.536509 11:0.357533 12:0.202963 13:0.255796 14:-0.928661 15:-0.925914 16:-0.932848 17:-0.930248 18:-0.929542 19:-0.92256 20:-0.924007 21:-0.93194 
0 0 1 1:-0.769231 2:-0.931818 3:-0.9 4:0.0769231 5:0.368368 6:1 7:1 8:1 9:1 10:0.318561 11:0.0448253 12:0.0751357 13:0.00692129 14:-0.878214 15:-0.871549 16:-0.869404 17:-0.878687 18:-0.937616 19:-0.93052 20:-0.9202 21:-0.938501 
0 0 1 1:-0.615385 2:-0.909091 3:-0.7 4:0.0769231 5:0.0753626 6:-0.60344 7:-0.566412 8:-0.466902 9:-0.587546 10:0.220731 11:0.0509117 12:0.188372 13:0.0287231 14:-0.704762 15:-0.667456 16:-0.618366 17:-0.69481 18:-0.751873 19:-0.691399 20:-0.602547 21:-0.739999 
0 0 1 1:-0.682692 2:-0.659091 3:-0.7 4:0.0769231 5:-0.169771 6:-0.529573 7:-0.476615 8:-0.321463 9:-0.500229 10:0.215005 11:0.121463 12:0.352041 13:0.126134 14:-0.764554 15:-0.729468 16:-0.685563 17:-0.75505 18:-0.75412 19:-0.68647 20:-0.584117 21:-0.739981 
0 0 1 1:-0.951923 2:-0.954545 3:-0.9 4:1 5:-0.566288 6:-0.584551 7:-0.487552 8:-0.305423 9:-0.551528 10:0.62347 11:0.59047 12:0.698784 13:0.58985 14:-0.97567 15:-0.970287 16:-0.966887 17:-0.974754 18:-0.950407 19:-0.935048 20:-0.93679 21:-0.95115 
0 0 1 1:-0.875 2:-0.954545 3:-0.6 4:1 5:0.569376 6:1 7:1 8:1 9:1 10:0.318561 11:0.0448253 12:0.0751357 13:0.00692129 14:-0.589107 15:-0.531028 16:-0.464636 17:-0.573877 18:-0.774497 19:-0.715856 20:-0.633501 21:-0.7629 
0 0 1 1:-0.798077 2:-0.954545 3:-0.6 4:-1 5:0.128757 6:-0.76753 7:-0.73435 8:-0.653663 9:-0.751927 10:0.0113329 11:-0.0841887 12:0.0682834 13:-0.140747 14:1 15:1 16:1 17:1 18:0.621148 19:0.794547 20:1 21:0.64786 
0 0 1 1:-0.711538 2:-0.863636 3:-0.6 4:-1 5:0.128757 6:-0.131536 7:-0.298028 8:-0.47533 9:-0.188316 10:-0.137604 11:-0.694421 12:-0.605677 13:-0.725556 14:1 15:1 16:1 17:1 18:0.621148 19:0.794547 20:1 21:0.64786 
0 0 1 1:-0.355769 2:-0.454545 3:-0.7 4:-1 5:0.128757 6:1 7:1 8:1 9:1 10:0.318561 11:0.0448253 12:0.0751357 13:0.00692129 14:1 15:1 16:1 17:1 18:0.621148 19:0.794547 20:1 21:0.64786 
0 0 1 1:-0.913462 2:-0.954545 3:-0.9 4:-1 5:-0.141485 6:-0.491268 7:-0.448554 8:-0.352725 9:-0.47466 10:0.276396 11:0.104466 12:0.199474 13:0.0721879 14:0.29567 15:0.32218 16:0.341192 17:0.302575 18:0.242626 19:0.418447 20:0.615923 21:0.273225 
0 0 1 1:-0.711538 2:-0.977273 3:-0.8 4:-1 5:-0.141485 6:-0.76753 7:-0.73435 8:-0.653663 9:-0.751927 10:0.0113329 11:-0.0841887 12:0.0682834 13:-0.140747 14:0.29567 15:0.32218 16:0.341192 17:0.302575 18:0.242626 19:0.418447 20:0.615923 21:0.273225 
0 0 1 1:-0.711538 2:-0.977273 3:-0.9 4:-1 5:-0.213047 6:1 7:1 8:1 9:1 10:0.318561 11:0.0448253 12:0.0751357 13:0.00692129 14:0.0304018 15:0.0755325 16:0.0753642 17:0.0265928 18:0.106628 19:0.286781 20:0.447106 21:0.124696 
0 0 1 1:-0.923077 2:-0.977273 3:-0.6 4:-1 5:-0.0143679 6:0.00828365 7:-0.0440351 8:-0.0588555 9:-0.00728187 10:0.154339 11:-0.213547 12:-0.122632 13:-0.233349 14:0.469464 15:0.506705 16:0.468344 17:0.448036 18:0.349152 19:0.531215 20:0.662366 21:0.350802 
0 0 1 1:-0.817308 2:-0.931818 3:-0.9 4:-1 5:-0.0143679 6:-0.790851 7:-0.772197 8:-0.731956 9:-0.794148 10:0.35415 11:-0.0220689 12:-0.0655685 13:-0.0702931 14:0.469464 15:0.506705 16:0.468344 17:0.448036 18:0.349152 19:0.531215 20:0.662366 21:0.350802 
0 0 1 1:-0.942308 2:-0.954545 3:-0.9 4:-1 5:-0.0143679 6:-0.700733 7:-0.675205 8:-0.571836 9:-0.693247 10:0.343148 11:0.0424596 12:0.208623 13:0.0702527 14:0.469464 15:0.506705 16:0.468344 17:0.448036 18:0.349152 19:0.531215 20:0.662366 21:0.350802 
0 0 1 1:-0.884615 2:-0.977273 3:-0.8 4:-1 5:-0.0143679 6:-0.700733 7:-0.675205 8:-0.571836 9:-0.693247 10:0.343148 11:0.0424596 12:0.208623 13:0.0702527 14:0.469464 15:0.506705 16:0.468344 17:0.448036 18:0.349152 19:0.531215 20:0.662366 21:0.350802 
0 0 1 1:-0.942308 2:-0.977273 3:-1 4:-1 5:-0.411727 6:-0.76753 7:-0.73435 8:-0.653663 9:-0.751927 10:0.0113329 11:-0.0841887 12:0.0682834 13:-0.140747 14:-0.408661 15:-0.35564 16:-0.317616 17:-0.394851 18:-0.135895 19:0.0423471 20:0.231845 21:-0.101411 
0 0 1 1:-0.855769 2:-0.909091 3:-0.5 4:-1 5:-0.0143679 6:-0.700733 7:-0.675205 8:-0.571836 9:-0.693247 10:0.343148 11:0.0424596 12:0.208623 13:0.0702527 14:0.469464 15:0.506705 16:0.468344 17:0.448036 18:0.349152 19:0.531215 20:0.662366 21:0.350802 
0 0 1 1:-0.413462 2:-0.931818 3:-1 4:-1 5:0.0571946 6:-0.424682 7:-0.446971 8:-0.503058 9:-0.449419 10:0.303135 11:-0.149364 12:-0.252093 13:-0.217829 14:0.734732 15:0.753353 16:0.734172 17:0.724018 18:0.48515 19:0.662881 20:0.831183 21:0.499331 
0 0 1 1:-0.961538 2:-0.977273 3:-1 4:-1 5:1 6:-0.63974 7:-0.574903 8:-0.454669 9:-0.61873 10:0.422974 11:0.319943 12:0.393814 13:0.287985 14:-0.755625 15:-0.714567 16:-0.680265 17:-0.745487 18:-0.905474 19:-0.878309 20:-0.843595 21:-0.900576 
0 0.1029982640914179 1 1:-0.769231 2:-0.568182 3:-0.7 4:-1 5:-0.411727 6:-0.491268 7:-0.448554 8:-0.352725 9:-0.47466 10:0.276396 11:0.104466 12:0.199474 13:0.0721879 14:-0.408661 15:-0.35564 16:-0.317616 17:-0.394851 18:-0.135895 19:0.0423471 20:0.231845 21:-0.101411 
0 0 1 1:-0.884615 2:-0.977273 3:-0.9 4:-1 5:-0.0143679 6:-0.424682 7:-0.446971 8:-0.503058 9:-0.449419 10:0.303135 11:-0.149364 12:-0.252093 13:-0.217829 14:0.469464 15:0.506705 16:0.468344 17:0.448036 18:0.349152 19:0.531215 20:0.662366 21:0.350802 
0 0 1 1:-0.480769 2:-0.954545 3:-0.9 4:-1 5:-0.141485 6:-0.902496 7:-0.840265 8:-0.732228 9:-0.883915 10:0.401126 11:0.438144 12:0.495378 13:0.373819 14:0.29567 15:0.32218 16:0.341192 17:0.302575 18:0.242626 19:0.418447 20:0.615923 21:0.273225 
0 0 1 1:-0.884615 2:-0.977273 3:-1 4:-1 5:-0.0143679 6:0.00828365 7:-0.0440351 8:-0.0588555 9:-0.00728187 10:0.154339 11:-0.213547 12:-0.122632 13:-0.233349 14:0.469464 15:0.506705 16:0.468344 17:0.448036 18:0.349152 19:0.531215 20:0.662366 21:0.350802 
0 0 1 1:-0.682692 2:-0.909091 3:-1 4:0.384615 5:-0.141485 6:-0.63974 7:-0.574903 8:-0.454669 9:-0.61873 10:0.422974 11:0.319943 12:0.393814 13:0.287985 14:0.29567 15:0.32218 16:0.341192 17:0.302575 18:0.242626 19:0.418447 20:0.615923 21:0.273225 
0 0 1 1:-0.855769 2:-0.954545 3:-1 4:0.384615 5:-0.411727 6:-0.491268 7:-0.448554 8:-0.352725 9:-0.47466 10:0.276396 11:0.104466 12:0.199474 13:0.0721879 14:-0.408661 15:-0.35564 16:-0.317616 17:-0.394851 18:-0.135895 19:0.0423471 20:0.231845 21:-0.101411 
0 0 1 1:-0.923077 2:-0.931818 3:-0.8 4:0.384615 5:0.128757 6:-0.897325 7:-0.863865 8:-0.784967 9:-0.890903 10:0.322467 11:0.072866 12:0.139307 13:0.0470994 14:1 15:1 16:1 17:1 18:0.621148 19:0.794547 20:1 21:0.64786 
0 0 1 1:-0.951923 2:-0.977273 3:-0.7 4:0.384615 5:-0.0143679 6:-0.897325 7:-0.863865 8:-0.784967 9:-0.890903 10:0.322467 11:0.072866 12:0.139307 13:0.0470994 14:0.469464 15:0.506705 16:0.468344 17:0.448036 18:0.349152 19:0.531215 20:0.662366 21:0.350802 
0 0 1 1:-0.855769 2:-0.931818 3:-0.8 4:0.384615 5:0.128757 6:-0.897325 7:-0.863865 8:-0.784967 9:-0.890903 10:0.322467 11:0.072866 12:0.139307 13:0.0470994 14:1 15:1 16:1 17:1 18:0.621148 19:0.794547 20:1 21:0.64786 
0 0 1 1:-0.826923 2:-0.977273 3:-1 4:0.384615 5:0.0571946 6:-0.424682 7:-0.446971 8:-0.503058 9:-0.449419 10:0.303135 11:-0.149364 12:-0.252093 13:-0.217829 14:0.734732 15:0.753353 16:0.734172 17:0.724018 18:0.48515 19:0.662881 20:0.831183 21:0.499331 
0 0 1 1:-0.817308 2:-0.886364 3:-0.9 4:0.384615 5:-0.0143679 6:-0.424682 7:-0.446971 8:-0.503058 9:-0.449419 10:0.303135 11:-0.149364 12:-0.252093 13:-0.217829 14:0.469464 15:0.506705 16:0.468344 17:0.448036 18:0.349152 19:0.531215 20:0.662366 21:0.350802 
0 0 1 1:-0.971154 2:-0.977273 3:-0.8 4:0.384615 5:-0.0143679 6:-0.424682 7:-0.446971 8:-0.503058 9:-0.449419 10:0.303135 11:-0.149364 12:-0.252093 13:-0.217829 14:0.469464 15:0.506705 16:0.468344 17:0.448036 18:0.349152 19:0.531215 20:0.662366 21:0.350802 
0 0 1 1:-0.951923 2:-0.931818 3:-0.9 4:0.384615 5:-0.0143679 6:-0.790851 7:-0.772197 8:-0.731956 9:-0.794148 10:0.35415 11:-0.0220689 12:-0.0655685 13:-0.0702931 14:0.469464 15:0.506705 16:0.468344 17:0.448036 18:0.349152 19:0.531215 20:0.662366 21:0.350802 
0 0 1 1:-0.913462 2:-0.931818 3:-1 4:0.384615 5:-0.187258 6:-0.700733 7:-0.675205 8:-0.571836 9:-0.693247 10:0.343148 11:0.0424596 12:0.208623 13:0.0702527 14:-0.38378 15:-0.356429 16:-0.356026 17:-0.38912 18:-0.405334 19:-0.310682 20:-0.224332 21:-0.400888 
0 0 1 1:-0.942308 2:-0.977273 3:-0.7 4:0.384615 5:-0.0143679 6:-0.424682 7:-0.446971 8:-0.503058 9:-0.449419 10:0.303135 11:-0.149364 12:-0.252093 13:-0.217829 14:0.469464 15:0.506705 16:0.468344 17:0.448036 18:0.349152 19:0.531215 20:0.662366 21:0.350802 
0 0 1 1:-0.730769 2:-0.977273 3:-0.8 4:0.384615 5:-0.0143679 6:-0.700733 7:-0.675205 8:-0.571836 9:-0.693247 10:0.343148 11:0.0424596 12:0.208623 13:0.0702527 14:0.469464 15:0.506705 16:0.468344 17:0.448036 18:0.349152 19:0.531215 20:0.662366 21:0.350802 
0.09152679925597038 0 1 1:-0.884615 2:-0.931818 3:-0.8 4:0.384615 5:-0.315156 6:0.00828365 7:-0.0440351 8:-0.0588555 9:-0.00728187 10:0.154339 11:-0.213547 12:-0.122632 13:-0.233349 14:-0.848393 15:-0.833027 16:-0.81298 17:-0.845165 18:-0.821283 19:-0.784017 20:-0.726697 21:-0.815482 
0 0 1 1:-0.692308 2:-0.886364 3:-1 4:0.384615 5:0.368368 6:1 7:1 8:1 9:1 10:0.318561 11:0.0448253 12:0.0751357 13:0.00692129 14:-0.878214 15:-0.871549 16:-0.869404 17:-0.878687 18:-0.937616 19:-0.93052 20:-0.9202 21:-0.938501 
0 0 0.2762952786535228 1:-0.567308 2:-0.909091 3:-0.7 4:0.384615 5:-0.0143679 6:1 7:1 8:1 9:1 10:0.318561 11:0.0448253 12:0.0751357 13:0.00692129 14:0.469464 15:0.506705 16:0.468344 17:0.448036 18:0.349152 19:0.531215 20:0.662366 21:0.350802 
0 0 1 1:-0.769231 2:-0.931818 3:-0.9 4:0.384615 5:-0.0143679 6:-0.424682 7:-0.446971 8:-0.503058 9:-0.449419 10:0.303135 11:-0.149364 12:-0.252093 13:-0.217829 14:0.469464 15:0.506705 16:0.468344 17:0.448036 18:0.349152 19:0.531215 20:0.662366 21:0.350802 
0 0 1 1:-0.826923 2:-0.977273 3:-0.9 4:0.384615 5:0.0571946 6:-0.424682 7:-0.446971 8:-0.503058 9:-0.449419 10:0.303135 11:-0.149364 12:-0.252093 13:-0.217829 14:0.734732 15:0.753353 16:0.734172 17:0.724018 18:0.48515 19:0.662881 20:0.831183 21:0.499331 
0 0 1 1:-0.923077 2:-0.886364 3:-0.7 4:0.384615 5:-0.112373 6:-0.789585 7:-0.780688 8:-0.69879 9:-0.78236 10:-0.00781142 11:-0.276691 12:-0.0258612 13:-0.266368 14:0.966964 15:0.778201 16:0.597086 17:0.935039 18:1 19:1 20:0.998881 21:1 
0 0 1 1:-0.846154 2:-0.954545 3:-0.7 4:0.384615 5:0.0571946 6:-0.424682 7:-0.446971 8:-0.503058 9:-0.449419 10:0.303135 11:-0.149364 12:-0.252093 13:-0.217829 14:0.734732 15:0.753353 16:0.734172 17:0.724018 18:0.48515 19:0.662881 20:0.831183 21:0.499331 
0 0 1 1:-0.971154 2:-0.931818 3:-1 4:0.384615 5:-0.130823 6:-0.60344 7:-0.566412 8:-0.466902 9:-0.587546 10:0.220731 11:0.0509117 12:0.188372 13:0.0287231 14:-0.589018 15:-0.533 16:-0.482649 17:-0.575265 18:-0.589318 19:-0.48377 20:-0.359168 21:-0.569106 
0 0 1 1:-0.865385 2:-0.931818 3:-0.9 4:0.384615 5:-0.0143679 6:-0.928982 7:-0.92704 8:-0.946989 9:-0.945239 10:0.298044 11:-0.329326 12:-0.690343 13:-0.481026 14:0.469464 15:0.506705 16:0.468344 17:0.448036 18:0.349152 19:0.531215 20:0.662366 21:0.350802 
0 0 1 1:-0.75 2:-0.909091 3:-0.9 4:0.384615 5:-0.0143679 6:-0.424682 7:-0.446971 8:-0.503058 9:-0.449419 10:0.303135 11:-0.149364 12:-0.252093 13:-0.217829 14:0.469464 15:0.506705 16:0.468344 17:0.448036 18:0.349152 19:0.531215 20:0.662366 21:0.350802 
0 0 1 1:-0.769231 2:-0.931818 3:-0.8 4:0.384615 5:0.0571946 6:-0.424682 7:-0.446971 8:-0.503058 9:-0.449419 10:0.303135 11:-0.149364 12:-0.252093 13:-0.217829 14:0.734732 15:0.753353 16:0.734172 17:0.724018 18:0.48515 19:0.662881 20:0.831183 21:0.499331 
0 0 1 1:-0.923077 2:-0.886364 3:-1 4:0.384615 5:0.0571946 6:-0.424682 7:-0.446971 8:-0.503058 9:-0.449419 10:0.303135 11:-0.149364 12:-0.252093 13:-0.217829 14:0.734732 15:0.753353 16:0.734172 17:0.724018 18:0.48515 19:0.662881 20:0.831183 21:0.499331 
0 0 1 1:-0.817308 2:-0.931818 3:-0.8 4:0.384615 5:-0.0143679 6:-0.424682 7:-0.446971 8:-0.503058 9:-0.449419 10:0.303135 11:-0.149364 12:-0.252093 13:-0.217829 14:0.469464 15:0.506705 16:0.468344 17:0.448036 18:0.349152 19:0.531215 20:0.662366 21:0.350802 
0 0 1 1:-0.875 2:-0.977273 3:-0.8 4:0.384615 5:0.128757 6:1 7:1 8:1 9:1 10:0.318561 11:0.0448253 12:0.0751357 13:0.00692129 14:1 15:1 16:1 17:1 18:0.621148 19:0.794547 20:1 21:0.64786 
0 0 1 1:-1 2:-0.977273 3:-0.8 4:0.384615 5:-0.0143679 6:-0.790851 7:-0.772197 8:-0.731956 9:-0.794148 10:0.35415 11:-0.0220689 12:-0.0655685 13:-0.0702931 14:0.469464 15:0.506705 16:0.468344 17:0.448036 18:0.349152 19:0.531215 20:0.662366 21:0.350802 
0 0 0.2495348470330665 1:-0.644231 2:-0.295455 3:-1 4:0.384615 5:-0.0143679 6:-0.424682 7:-0.446971 8:-0.503058 9:-0.449419 10:0.303135 11:-0.149364 12:-0.252093 13:-0.217829 14:0.469464 15:0.506705 16:0.468344 17:0.448036 18:0.349152 19:0.531215 20:0.662366 21:0.350802 
0 0 1 1:-0.788462 2:-0.954545 3:-0.9 4:0.384615 5:-0.0143679 6:-0.789585 7:-0.780688 8:-0.69879 9:-0.78236 10:-0.00781142 11:-0.276691 12:-0.0258612 13:-0.266368 14:0.469464 15:0.506705 16:0.468344 17:0.448036 18:0.349152 19:0.531215 20:0.662366 21:0.350802 
0 0 1 1:-0.788462 2:-0.931818 3:-0.9 4:-0.846154 5:0.128757 6:-0.63974 7:-0.574903 8:-0.454669 9:-0.61873 10:0.422974 11:0.319943 12:0.393814 13:0.287985 14:1 15:1 16:1 17:1 18:0.621148 19:0.794547 20:1 21:0.64786 
0 0 1 1:-0.951923 2:-0.977273 3:-0.6 4:-0.846154 5:-0.0143679 6:-0.424682 7:-0.446971 8:-0.503058 9:-0.449419 10:0.303135 11:-0.149364 12:-0.252093 13:-0.217829 14:0.469464 15:0.506705 16:0.468344 17:0.448036 18:0.349152 19:0.531215 20:0.662366 21:0.350802 
0 0 1 1:-0.932692 2:-0.909091 3:-0.8 4:-0.846154 5:-0.0143679 6:-0.928982 7:-0.92704 8:-0.946989 9:-0.945239 10:0.298044 11:-0.329326 12:-0.690343 13:-0.481026 14:0.469464 15:0.506705 16:0.468344 17:0.448036 18:0.349152 19:0.531215 20:0.662366 21:0.350802 
0 0 1 1:-0.865385 2:-0.954545 3:-0.8 4:-0.846154 5:0.128757 6:-0.131536 7:-0.298028 8:-0.47533 9:-0.188316 10:-0.137604 11:-0.694421 12:-0.605677 13:-0.725556 14:1 15:1 16:1 17:1 18:0.621148 19:0.794547 20:1 21:0.64786 
0 0 1 1:-0.769231 2:-0.977273 3:-0.8 4:-0.846154 5:0.128757 6:-0.491268 7:-0.448554 8:-0.352725 9:-0.47466 10:0.276396 11:0.104466 12:0.199474 13:0.0721879 14:1 15:1 16:1 17:1 18:0.621148 19:0.794547 20:1 21:0.64786 
0 0 1 1:-0.326923 2:-0.727273 3:-1 4:-0.846154 5:-0.112373 6:-0.131536 7:-0.298028 8:-0.47533 9:-0.188316 10:-0.137604 11:-0.694421 12:-0.605677 13:-0.725556 14:0.966964 15:0.778201 16:0.597086 17:0.935039 18:1 19:1 20:0.998881 21:1 
0 0 1 1:-0.634615 2:-0.863636 3:-0.9 4:-0.846154 5:0.248563 6:-0.790851 7:-0.772197 8:-0.731956 9:-0.794148 10:0.35415 11:-0.0220689 12:-0.0655685 13:-0.0702931 14:0.0608929 15:0.0642256 16:0.065298 17:0.0606566 18:-0.158234 19:-0.0679869 20:0.0399002 21:-0.14532 
0 0 1 1:-0.759615 2:-0.954545 3:-0.9 4:-0.846154 5:-0.112373 6:0.00828365 7:-0.0440351 8:-0.0588555 9:-0.00728187 10:0.154339 11:-0.213547 12:-0.122632 13:-0.233349 14:0.966964 15:0.778201 16:0.597086 17:0.935039 18:1 19:1 20:0.998881 21:1 
0 0 1 1:-0.788462 2:-0.931818 3:-0.5 4:-0.846154 5:0.128757 6:0.00828365 7:-0.0440351 8:-0.0588555 9:-0.00728187 10:0.154339 11:-0.213547 12:-0.122632 13:-0.233349 14:1 15:1 16:1 17:1 18:0.621148 19:0.794547 20:1 21:0.64786 
0 0 1 1:-0.951923 2:-0.977273 3:-0.5 4:-0.846154 5:-0.112373 6:-0.131536 7:-0.298028 8:-0.47533 9:-0.188316 10:-0.137604 11:-0.694421 12:-0.605677 13:-0.725556 14:0.966964 15:0.778201 16:0.597086 17:0.935039 18:1 19:1 20:0.998881 21:1 
0 0 1 1:-0.682692 2:-0.909091 3:-0.9 4:-0.846154 5:-0.0143679 6:0.00828365 7:-0.0440351 8:-0.0588555 9:-0.00728187 10:0.154339 11:-0.213547 12:-0.122632 13:-0.233349 14:0.469464 15:0.506705 16:0.468344 17:0.448036 18:0.349152 19:0.531215 20:0.662366 21:0.350802 
0 0 1 1:-0.317308 2:-0.977273 3:-1 4:-0.846154 5:-0.131781 6:0.00828365 7:-0.0440351 8:-0.0588555 9:-0.00728187 10:0.154339 11:-0.213547 12:-0.122632 13:-0.233349 14:0.519435 15:0.474187 16:0.42649 17:0.513396 18:0.495084 19:0.612298 20:0.743575 21:0.515483 
0 0 1 1:-0.942308 2:-0.954545 3:-0.8 4:-0.846154 5:-0.112373 6:-0.131536 7:-0.298028 8:-0.47533 9:-0.188316 10:-0.137604 11:-0.694421 12:-0.605677 13:-0.725556 14:0.966964 15:0.778201 16:0.597086 17:0.935039 18:1 19:1 20:0.998881 21:1 
0.4748386958259975 0 1 1:-0.875 2:-0.954545 3:-0.9 4:-0.846154 5:-0.742436 6:-0.131536 7:-0.298028 8:-0.47533 9:-0.188316 10:-0.137604 11:-0.694421 12:-0.605677 13:-0.725556 14:-0.782232 15:-0.802261 16:-0.829139 17:-0.78748 18:-0.362581 19:-0.362722 20:-0.389185 21:-0.368829 
0 0 1 1:-0.942308 2:-0.931818 3:-0.8 4:-0.846154 5:-0.112373 6:0.00828365 7:-0.0440351 8:-0.0588555 9:-0.00728187 10:0.154339 11:-0.213547 12:-0.122632 13:-0.233349 14:0.966964 15:0.778201 16:0.597086 17:0.935039 18:1 19:1 20:0.998881 21:1 
0 0 1 1:-0.865385 2:-0.909091 3:-0.8 4:-0.846154 5:-0.0633705 6:0.00828365 7:-0.0440351 8:-0.0588555 9:-0.00728187 10:0.154339 11:-0.213547 12:-0.122632 13:-0.233349 14:0.718214 15:0.642453 16:0.532715 17:0.691538 18:0.674576 19:0.765608 20:0.830624 21:0.675401 
0 0 1 1:-0.932692 2:-0.977273 3:-0.6 4:-0.846154 5:-0.112373 6:-0.614204 7:-0.705713 8:-0.667799 9:-0.61393 10:-0.663468 11:-1 12:-0.502076 13:-0.964163 14:0.966964 15:0.778201 16:0.597086 17:0.935039 18:1 19:1 20:0.998881 21:1 
0 0 1 1:-0.932692 2:-0.954545 3:-1 4:-0.846154 5:-0.0143679 6:0.00828365 7:-0.0440351 8:-0.0588555 9:-0.00728187 10:0.154339 11:-0.213547 12:-0.122632 13:-0.233349 14:0.469464 15:0.506705 16:0.468344 17:0.448036 18:0.349152 19:0.531215 20:0.662366 21:0.350802 
0 0 1 1:-0.673077 2:-0.931818 3:-0.8 4:-0.846154 5:-0.112373 6:0.00828365 7:-0.0440351 8:-0.0588555 9:-0.00728187 10:0.154339 11:-0.213547 12:-0.122632 13:-0.233349 14:0.966964 15:0.778201 16:0.597086 17:0.935039 18:1 19:1 20:0.998881 21:1 
0 0 1 1:-0.913462 2:-0.954545 3:-0.6 4:-0.846154 5:0.128757 6:-0.614204 7:-0.705713 8:-0.667799 9:-0.61393 10:-0.663468 11:-1 12:-0.502076 13:-0.964163 14:1 15:1 16:1 17:1 18:0.621148 19:0.794547 20:1 21:0.64786 
0 0 1 1:-0.615385 2:-0.909091 3:-0.9 4:-0.846154 5:-0.112373 6:-0.131536 7:-0.298028 8:-0.47533 9:-0.188316 10:-0.137604 11:-0.694421 12:-0.605677 13:-0.725556 14:0.966964 15:0.778201 16:0.597086 17:0.935039 18:1 19:1 20:0.998881 21:1 
0 0 1 1:-0.817308 2:-0.954545 3:-0.7 4:-0.846154 5:-0.242017 6:-0.614204 7:-0.705713 8:-0.667799 9:-0.61393 10:-0.663468 11:-1 12:-0.502076 13:-0.964163 14:0.394911 15:0.325313 16:0.255982 17:0.38252 18:0.419522 19:0.477275 20:0.536565 21:0.426344 
0 0 1 1:-0.75 2:-0.909091 3:-0.9 4:-0.846154 5:-0.427405 6:0.00828365 7:-0.0440351 8:-0.0588555 9:-0.00728187 10:0.154339 11:-0.213547 12:-0.122632 13:-0.233349 14:0.0923661 15:-0.01203 16:-0.116026 17:0.0737794 18:0.318709 19:0.318639 20:0.304848 21:0.315585 
0 0 1 1:-0.798077 2:-0.909091 3:-0.8 4:-0.846154 5:-0.112373 6:-0.960112 7:-0.95467 8:-0.884192 9:-0.942463 10:-1 11:-0.928019 12:-0.421593 13:-1 14:0.966964 15:0.778201 16:0.597086 17:0.935039 18:1 19:1 20:0.998881 21:1 
0 0 1 1:-0.894231 2:-0.977273 3:-0.6 4:-0.846154 5:0.128757 6:-0.627394 7:-0.647719 8:-0.583254 9:-0.624673 10:-0.0911004 11:-0.411617 12:-0.143357 13:-0.397179 14:1 15:1 16:1 17:1 18:0.621148 19:0.794547 20:1 21:0.64786 
0 0 1 1:-0.836538 2:-0.954545 3:-1 4:-0.846154 5:0.128757 6:-0.76753 7:-0.73435 8:-0.653663 9:-0.751927 10:0.0113329 11:-0.0841887 12:0.0682834 13:-0.140747 14:1 15:1 16:1 17:1 18:0.621148 19:0.794547 20:1 21:0.64786 
0 0 1 1:-0.490385 2:-0.704545 3:-0.3 4:-0.846154 5:-0.0296195 6:-0.491268 7:-0.448554 8:-0.352725 9:-0.47466 10:0.276396 11:0.104466 12:0.199474 13:0.0721879 14:0.413415 15:0.381344 16:0.330132 17:0.400635 18:0.293909 19:0.393923 20:0.489731 21:0.30208 
0 0 1 1:-0.769231 2:-0.954545 3:-0.8 4:0.384615 5:-0.112373 6:-0.789585 7:-0.780688 8:-0.69879 9:-0.78236 10:-0.00781142 11:-0.276691 12:-0.0258612 13:-0.266368 14:0.966964 15:0.778201 16:0.597086 17:0.935039 18:1 19:1 20:0.998881 21:1 
0 0 1 1:-0.836538 2:-0.954545 3:-1 4:-0.0769231 5:-0.130823 6:-0.63974 7:-0.574903 8:-0.454669 9:-0.61873 10:0.422974 11:0.319943 12:0.393814 13:0.287985 14:-0.589018 15:-0.533 16:-0.482649 17:-0.575265 18:-0.589318 19:-0.48377 20:-0.359168 21:-0.569106 
0 0 1 1:-0.951923 2:-0.977273 3:-0.7 4:0.538462 5:-0.0143679 6:-0.80879 7:-0.757807 8:-0.580807 9:-0.78605 10:0.423739 11:0.28015 12:0.674352 13:0.391532 14:0.469464 15:0.506705 16:0.468344 17:0.448036 18:0.349152 19:0.531215 20:0.662366 21:0.350802 
0.07440486147700087 0 1 1:-0.932692 2:-0.954545 3:-0.8 4:-0.538462 5:-0.254348 6:-0.524086 7:-0.44438 8:-0.2902 9:-0.493437 10:0.417135 11:0.358085 12:0.47585 13:0.337079 14:-0.838036 15:-0.824787 16:-0.826843 17:-0.837879 18:-0.777751 19:-0.735129 20:-0.71692 21:-0.776113 
0 0 1 1:-0.596154 2:-0.886364 3:-0.8 4:-0.538462 5:-0.234078 6:1 7:1 8:1 9:1 10:0.318561 11:0.0448253 12:0.0751357 13:0.00692129 14:-0.802455 15:-0.776689 16:-0.759205 17:-0.799506 18:-0.78377 19:-0.730432 20:-0.669772 21:-0.777802 
0 0 1 1:-0.923077 2:-0.931818 3:-0.8 4:-0.538462 5:-0.0127375 6:1 7:1 8:1 9:1 10:0.318561 11:0.0448253 12:0.0751357 13:0.00692129 14:-0.760119 15:-0.73499 16:-0.709581 17:-0.755726 18:-0.796715 19:-0.752827 20:-0.696382 21:-0.790821 
0 0 1 1:-0.894231 2:-0.977273 3:-0.9 4:-0.538462 5:-0.144126 6:-0.834749 7:-0.793495 8:-0.717276 9:-0.830035 10:0.552073 11:0.269866 12:0.228966 13:0.235217 14:-0.769152 15:-0.738857 16:-0.727616 17:-0.766122 18:-0.752029 19:-0.69415 20:-0.655486 21:-0.747398 
0 0 1 1:-0.625 2:-0.840909 3:-0.9 4:-0.538462 5:-0.138132 6:-0.584551 7:-0.487552 8:-0.305423 9:-0.551528 10:0.62347 11:0.59047 12:0.698784 13:0.58985 14:-0.744375 15:-0.705846 16:-0.678146 17:-0.737831 18:-0.777509 19:-0.717046 20:-0.654635 21:-0.769024 
0 0 0.1448080873474251 1:-0.769231 2:-0.909091 3:-1 4:-0.538462 5:0.506431 6:-0.982166 7:-0.915096 8:-0.792578 9:-0.96666 10:1 11:1 12:1 13:1 14:-0.636027 15:-0.581975 16:-0.536821 17:-0.627701 18:-0.767879 19:-0.705652 20:-0.635166 21:-0.759864 
0 0 1 1:-0.769231 2:-0.954545 3:-0.9 4:0.230769 5:-0.354536 6:-0.753284 7:-0.697942 8:-0.641158 9:-0.746114 10:0.536509 11:0.357533 12:0.202963 13:0.255796 14:-0.908973 15:-0.89791 16:-0.894967 17:-0.908182 18:-0.805527 19:-0.765154 20:-0.748794 21:-0.804209 
0 0 1 1:-0.865385 2:-0.931818 3:-1 4:-0.692308 5:-0.359225 6:-0.60344 7:-0.566412 8:-0.466902 9:-0.587546 10:0.220731 11:0.0509117 12:0.188372 13:0.0287231 14:-0.772902 15:-0.7429 16:-0.718278 17:-0.766067 18:-0.758652 19:-0.699564 20:-0.63373 21:-0.748773 
0 0 1 1:-0.865385 2:-0.954545 3:-0.8 4:-0.692308 5:0.121814 6:-0.529573 7:-0.476615 8:-0.321463 9:-0.500229 10:0.215005 11:0.121463 12:0.352041 13:0.126134 14:-0.811674 15:-0.791185 16:-0.758013 17:-0.805845 18:-0.864575 19:-0.835588 20:-0.781789 21:-0.858815 
0 0 1 1:-0.817308 2:-0.931818 3:-1 4:0.692308 5:-0.120047 6:-0.529573 7:-0.476615 8:-0.321463 9:-0.500229 10:0.215005 11:0.121463 12:0.352041 13:0.126134 14:-0.896741 15:-0.893242 16:-0.882914 17:-0.895837 18:-0.910038 19:-0.899891 20:-0.875635 21:-0.90909 
0 0 1 1:-1 2:-0.977273 3:-1 4:0.846154 5:0.0258057 6:-0.524086 7:-0.44438 8:-0.2902 9:-0.493437 10:0.417135 11:0.358085 12:0.47585 13:0.337079 14:-0.803661 15:-0.777873 16:-0.740596 17:-0.796735 18:-0.850138 19:-0.813498 20:-0.752199 21:-0.84313 
0 0.3755770834813651 1 1:-0.932692 2:-0.954545 3:-0.9 4:-0.538462 5:-0.274359 6:-0.60344 7:-0.566412 8:-0.466902 9:-0.587546 10:0.220731 11:0.0509117 12:0.188372 13:0.0287231 14:-0.777173 15:-0.743054 16:-0.71117 17:-0.768455 18:-0.799212 19:-0.746093 20:-0.680623 21:-0.78915 
0 0 0.02392039758654158 1:-0.807692 2:-0.886364 3:-0.9 4:-0.538462 5:0.569376 6:1 7:1 8:1 9:1 10:0.318561 11:0.0448253 12:0.0751357 13:0.00692129 14:-0.589107 15:-0.531028 16:-0.464636 17:-0.573877 18:-0.774497 19:-0.715856 20:-0.633501 21:-0.7629 
0 0 1 1:-0.576923 2:-0.863636 3:-0.9 4:-0.538462 5:-0.0401907 6:-0.524086 7:-0.44438 8:-0.2902 9:-0.493437 10:0.417135 11:0.358085 12:0.47585 13:0.337079 14:-0.720744 15:-0.678587 16:-0.643179 17:-0.710687 18:-0.774249 19:-0.714195 20:-0.645942 21:-0.763475 
0 0 1 1:-0.807692 2:-0.840909 3:-0.8 4:-0.538462 5:0.103159 6:-0.524086 7:-0.44438 8:-0.2902 9:-0.493437 10:0.417135 11:0.358085 12:0.47585 13:0.337079 14:-0.679598 15:-0.636537 16:-0.589536 17:-0.668333 18:-0.755339 19:-0.693976 20:-0.610451 21:-0.743272 
0 0 1 1:-0.759615 2:-0.863636 3:-0.8 4:-0.538462 5:-0.335387 6:-0.834749 7:-0.793495 8:-0.717276 9:-0.830035 10:0.552073 11:0.269866 12:0.228966 13:0.235217 14:-0.789687 15:-0.765448 16:-0.756291 17:-0.786869 18:-0.72239 19:-0.658538 20:-0.590931 21:-0.713882 
0 0 1 1:-0.846154 2:-0.863636 3:-0.9 4:-0.538462 5:-0.0914365 6:-0.584551 7:-0.487552 8:-0.305423 9:-0.551528 10:0.62347 11:0.59047 12:0.698784 13:0.58985 14:-0.883452 15:-0.86572 16:-0.853598 17:-0.879816 18:-0.899787 19:-0.876102 20:-0.853071 21:-0.897437 
0 0 1 1:-0.923077 2:-0.977273 3:-0.8 4:-0.384615 5:-0.300804 6:-0.904184 7:-0.848323 8:-0.772733 9:-0.895441 10:0.642633 11:0.503996 12:0.339872 13:0.406462 14:-0.775893 15:-0.744116 16:-0.72351 17:-0.769594 18:-0.782446 19:-0.728085 20:-0.671194 21:-0.774146 
0 0 1 1:-0.865385 2:-0.977273 3:-1 4:-0.384615 5:-0.230127 6:-0.529573 7:-0.476615 8:-0.321463 9:-0.500229 10:0.215005 11:0.121463 12:0.352041 13:0.126134 14:-0.82308 15:-0.799128 16:-0.765121 17:-0.81598 18:-0.804557 19:-0.753633 20:-0.673315 21:-0.793731 
0 0 1 1:-0.971154 2:-0.977273 3:-0.8 4:-0.384615 5:-0.310677 6:-0.753284 7:-0.697942 8:-0.641158 9:-0.746114 10:0.536509 11:0.357533 12:0.202963 13:0.255796 14:-0.943661 15:-0.941099 16:-0.94596 17:-0.94512 18:-0.945729 19:-0.940661 20:-0.941268 21:-0.948302 
0 0 1 1:-0.894231 2:-0.863636 3:-0.9 4:-0.230769 5:0.569376 6:-0.524086 7:-0.44438 8:-0.2902 9:-0.493437 10:0.417135 11:0.358085 12:0.47585 13:0.337079 14:-0.589107 15:-0.531028 16:-0.464636 17:-0.573877 18:-0.774497 19:-0.715856 20:-0.633501 21:-0.7629 
0 0 1 1:-0.923077 2:-0.931818 3:-0.9 4:-0.0769231 5:-0.0742174 6:1 7:1 8:1 9:1 10:0.318561 11:0.0448253 12:0.0751357 13:0.00692129 14:-0.845268 15:-0.826979 16:-0.790464 17:-0.838027 18:-0.86699 19:-0.837026 20:-0.773337 21:-0.859012 
0 0 1 1:-0.817308 2:-0.954545 3:-0.8 4:-0.0769231 5:-0.153489 6:-0.60344 7:-0.566412 8:-0.466902 9:-0.587546 10:0.220731 11:0.0509117 12:0.188372 13:0.0287231 14:-0.753893 15:-0.725112 16:-0.691391 17:-0.746859 18:-0.745386 19:-0.685595 20:-0.604577 21:-0.734742 
0 0 1 1:-0.807692 2:-0.886364 3:-0.7 4:-0.0769231 5:-0.22889 6:-0.529573 7:-0.476615 8:-0.321463 9:-0.500229 10:0.215005 11:0.121463 12:0.352041 13:0.126134 14:-0.851808 15:-0.835623 16:-0.822848 17:-0.849324 18:-0.865331 19:-0.836883 20:-0.800784 21:-0.862018 
0 0 1 1:-0.836538 2:-0.931818 3:-1 4:-0.0769231 5:0.134954 6:-0.60344 7:-0.566412 8:-0.466902 9:-0.587546 10:0.220731 11:0.0509117 12:0.188372 13:0.0287231 14:-0.759286 15:-0.734683 16:-0.693245 17:-0.752625 18:-0.823893 19:-0.787011 20:-0.720311 21:-0.816916 
0 0 1 1:-0.923077 2:-0.954545 3:-0.8 4:-0.0769231 5:0.219277 6:-0.524086 7:-0.44438 8:-0.2902 9:-0.493437 10:0.417135 11:0.358085 12:0.47585 13:0.337079 14:-0.589063 15:-0.532014 16:-0.473642 17:-0.574571 18:-0.681908 19:-0.599813 20:-0.496335 21:-0.666003 
0 0 1 1:-0.971154 2:-0.954545 3:-0.9 4:-0.0769231 5:-0.0731667 6:-0.491268 7:-0.448554 8:-0.352725 9:-0.47466 10:0.276396 11:0.104466 12:0.199474 13:0.0721879 14:-0.903214 15:-0.885748 16:-0.871788 17:-0.898934 18:-0.924319 19:-0.901578 20:-0.872823 21:-0.920323 
0 0 1 1:-0.807692 2:-0.977273 3:-0.8 4:-0.0769231 5:-0.504728 6:-0.584551 7:-0.487552 8:-0.305423 9:-0.551528 10:0.62347 11:0.59047 12:0.698784 13:0.58985 14:-0.888036 15:-0.865895 16:-0.836556 17:-0.881214 18:-0.822614 19:-0.764866 20:-0.674781 21:-0.809031 
0 0 1 1:-0.875 2:-0.954545 3:-0.8 4:-0.0769231 5:0.569376 6:-0.529573 7:-0.476615 8:-0.321463 9:-0.500229 10:0.215005 11:0.121463 12:0.352041 13:0.126134 14:-0.589107 15:-0.531028 16:-0.464636 17:-0.573877 18:-0.774497 19:-0.715856 20:-0.633501 21:-0.7629 
0 0 0.4263695888918639 1:-0.682692 2:-0.954545 3:-0.7 4:-0.0769231 5:0.569376 6:-0.529573 7:-0.476615 8:-0.321463 9:-0.500229 10:0.215005 11:0.121463 12:0.352041 13:0.126134 14:-0.589107 15:-0.531028 16:-0.464636 17:-0.573877 18:-0.774497 19:-0.715856 20:-0.633501 21:-0.7629 
0 0.5015013220283515 1 1:-0.894231 2:-0.977273 3:-0.9 4:-0.0769231 5:0.349159 6:-0.60344 7:-0.566412 8:-0.466902 9:-0.587546 10:0.220731 11:0.0509117 12:0.188372 13:0.0287231 14:-0.530848 15:-0.459045 16:-0.386623 17:-0.512428 18:-0.681054 19:-0.592504 20:-0.480942 21:-0.663446 
0.03841250572946707 0 1 1:-0.923077 2:-0.977273 3:-0.9 4:-0.0769231 5:-0.504728 6:-0.584551 7:-0.487552 8:-0.305423 9:-0.551528 10:0.62347 11:0.59047 12:0.698784 13:0.58985 14:-0.888036 15:-0.865895 16:-0.836556 17:-0.881214 18:-0.822614 19:-0.764866 20:-0.674781 21:-0.809031 
0 0 1 1:-0.817308 2:-0.931818 3:-0.9 4:0.0769231 5:-0.119339 6:1 7:1 8:1 9:1 10:0.318561 11:0.0448253 12:0.0751357 13:0.00692129 14:-0.749844 15:-0.713811 16:-0.684172 17:-0.743126 18:-0.78001 19:-0.722255 20:-0.656065 21:-0.771217 
0 0 1 1:-0.846154 2:-0.931818 3:-0.8 4:0.0769231 5:-0.201394 6:-0.524086 7:-0.44438 8:-0.2902 9:-0.493437 10:0.417135 11:0.358085 12:0.47585 13:0.337079 14:-0.754792 15:-0.717679 16:-0.688212 17:-0.748135 18:-0.779873 19:-0.719339 20:-0.648088 21:-0.77029 
0 0 1 1:-0.490385 2:-0.886364 3:-0.8 4:0.0769231 5:-0.391198 6:-0.524086 7:-0.44438 8:-0.2902 9:-0.493437 10:0.417135 11:0.358085 12:0.47585 13:0.337079 14:-0.891161 15:-0.872075 16:-0.859338 17:-0.886963 18:-0.860591 19:-0.819138 20:-0.775349 21:-0.853562 
0 0 1 1:-0.817308 2:-0.931818 3:-1 4:0.0769231 5:0.0398169 6:-0.524086 7:-0.44438 8:-0.2902 9:-0.493437 10:0.417135 11:0.358085 12:0.47585 13:0.337079 14:-0.766786 15:-0.729819 16:-0.691921 17:-0.757124 18:-0.81347 19:-0.761343 20:-0.692036 21:-0.803126 
0 0 1 1:-0.730769 2:-0.931818 3:-1 4:0.0769231 5:-0.337733 6:-0.524086 7:-0.44438 8:-0.2902 9:-0.493437 10:0.417135 11:0.358085 12:0.47585 13:0.337079 14:-0.711875 15:-0.665264 16:-0.623046 17:-0.700189 18:-0.70892 19:-0.62649 20:-0.530331 21:-0.69304 
0 0 1 1:-0.798077 2:-0.909091 3:-0.7 4:0.0769231 5:0.221956 6:-0.524086 7:-0.44438 8:-0.2902 9:-0.493437 10:0.417135 11:0.358085 12:0.47585 13:0.337079 14:-0.765982 15:-0.734683 16:-0.679205 17:-0.756541 18:-0.842407 19:-0.803417 20:-0.728161 21:-0.833974 
0 0 1 1:-0.673077 2:-0.954545 3:-0.6 4:0.0769231 5:-0.0689146 6:-0.524086 7:-0.44438 8:-0.2902 9:-0.493437 10:0.417135 11:0.358085 12:0.47585 13:0.337079 14:-0.705714 15:-0.658822 16:-0.61298 17:-0.693829 18:-0.76584 19:-0.700233 20:-0.61571 21:-0.752998 
0 0 1 1:-0.903846 2:-0.977273 3:-1 4:0.0769231 5:0.128942 6:-0.529573 7:-0.476615 8:-0.321463 9:-0.500229 10:0.215005 11:0.121463 12:0.352041 13:0.126134 14:-0.472589 15:-0.387063 16:-0.308609 17:-0.45098 18:-0.58761 19:-0.469153 20:-0.328382 21:-0.563991 
0 0 1 1:-0.951923 2:-0.977273 3:-1 4:0.0769231 5:-0.456007 6:-0.529573 7:-0.476615 8:-0.321463 9:-0.500229 10:0.215005 11:0.121463 12:0.352041 13:0.126134 14:-0.875804 15:-0.858752 16:-0.840353 17:-0.871744 18:-0.803176 19:-0.751881 20:-0.678753 21:-0.79345 
0.03391525718378122 0 0 1:-0.788462 2:-0.931818 3:-0.8 4:1 5:0.128942 6:-0.584551 7:-0.487552 8:-0.305423 9:-0.551528 10:0.62347 11:0.59047 12:0.698784 13:0.58985 14:-0.472589 15:-0.387063 16:-0.308609 17:-0.45098 18:-0.58761 19:-0.469153 20:-0.328382 21:-0.563991 
0 0 1 1:-0.875 2:-0.977273 3:-0.9 4:0.0769231 5:0.221956 6:-0.529573 7:-0.476615 8:-0.321463 9:-0.500229 10:0.215005 11:0.121463 12:0.352041 13:0.126134 14:-0.765982 15:-0.734683 16:-0.679205 17:-0.756541 18:-0.842407 19:-0.803417 20:-0.728161 21:-0.833974 
0 0.06525816184220222 1 1:-0.817308 2:-0.954545 3:-0.6 4:-1 5:-0.226485 6:-0.491268 7:-0.448554 8:-0.352725 9:-0.47466 10:0.276396 11:0.104466 12:0.199474 13:0.0721879 14:-0.587768 15:-0.546279 16:-0.522252 17:-0.579501 18:-0.466473 19:-0.352663 20:-0.237331 21:-0.446944 
0 0 1 1:-0.826923 2:-0.977273 3:-0.6 4:-1 5:-0.112373 6:-0.76753 7:-0.73435 8:-0.653663 9:-0.751927 10:0.0113329 11:-0.0841887 12:0.0682834 13:-0.140747 14:0.966964 15:0.778201 16:0.597086 17:0.935039 18:1 19:1 20:0.998881 21:1 
0 0 1 1:-0.557692 2:-0.931818 3:-0.8 4:-1 5:-0.141485 6:-0.76753 7:-0.73435 8:-0.653663 9:-0.751927 10:0.0113329 11:-0.0841887 12:0.0682834 13:-0.140747 14:0.29567 15:0.32218 16:0.341192 17:0.302575 18:0.242626 19:0.418447 20:0.615923 21:0.273225 
0 0 1 1:-0.615385 2:-0.954545 3:-0.9 4:-1 5:-0.141485 6:-0.76753 7:-0.73435 8:-0.653663 9:-0.751927 10:0.0113329 11:-0.0841887 12:0.0682834 13:-0.140747 14:0.29567 15:0.32218 16:0.341192 17:0.302575 18:0.242626 19:0.418447 20:0.615923 21:0.273225 
0 0 1 1:-0.980769 2:-0.977273 3:-1 4:-1 5:-0.0143679 6:-0.491268 7:-0.448554 8:-0.352725 9:-0.47466 10:0.276396 11:0.104466 12:0.199474 13:0.0721879 14:0.469464 15:0.506705 16:0.468344 17:0.448036 18:0.349152 19:0.531215 20:0.662366 21:0.350802 
0 0 1 1:-0.721154 2:-0.75 3:0.2 4:-1 5:0.128757 6:-0.700733 7:-0.675205 8:-0.571836 9:-0.693247 10:0.343148 11:0.0424596 12:0.208623 13:0.0702527 14:1 15:1 16:1 17:1 18:0.621148 19:0.794547 20:1 21:0.64786 
0 0 1 1:-0.923077 2:-0.977273 3:-0.8 4:-1 5:0.0571946 6:-0.700733 7:-0.675205 8:-0.571836 9:-0.693247 10:0.343148 11:0.0424596 12:0.208623 13:0.0702527 14:0.734732 15:0.753353 16:0.734172 17:0.724018 18:0.48515 19:0.662881 20:0.831183 21:0.499331 
0 0 1 1:-0.807692 2:-0.954545 3:-0.7 4:-1 5:0.128757 6:-0.76753 7:-0.73435 8:-0.653663 9:-0.751927 10:0.0113329 11:-0.0841887 12:0.0682834 13:-0.140747 14:1 15:1 16:1 17:1 18:0.621148 19:0.794547 20:1 21:0.64786 
0 0 1 1:-0.865385 2:-0.909091 3:-0.9 4:-1 5:-0.112373 6:-0.960112 7:-0.95467 8:-0.884192 9:-0.942463 10:-1 11:-0.928019 12:-0.421593 13:-1 14:0.966964 15:0.778201 16:0.597086 17:0.935039 18:1 19:1 20:0.998881 21:1 
0 0 1 1:-0.894231 2:-0.977273 3:-1 4:-1 5:-0.0143679 6:-0.790851 7:-0.772197 8:-0.731956 9:-0.794148 10:0.35415 11:-0.0220689 12:-0.0655685 13:-0.0702931 14:0.469464 15:0.506705 16:0.468344 17:0.448036 18:0.349152 19:0.531215 20:0.662366 21:0.350802 
0 0.01714561473245848 1 1:-0.903846 2:-0.977273 3:-0.9 4:-1 5:0.564379 6:-0.63974 7:-0.574903 8:-0.454669 9:-0.61873 10:0.422974 11:0.319943 12:0.393814 13:0.287985 14:0.122188 15:0.142716 16:0.159868 17:0.127257 18:-0.142163 19:-0.0418813 20:0.0782023 21:-0.126358 
0 0 1 1:-0.884615 2:-0.909091 3:-0.8 4:-1 5:0.128757 6:-0.902496 7:-0.840265 8:-0.732228 9:-0.883915 10:0.401126 11:0.438144 12:0.495378 13:0.373819 14:1 15:1 16:1 17:1 18:0.621148 19:0.794547 20:1 21:0.64786 
0 0 1 1:0.105769 2:-0.340909 3:-0.9 4:-1 5:0.128757 6:0.00828365 7:-0.0440351 8:-0.0588555 9:-0.00728187 10:0.154339 11:-0.213547 12:-0.122632 13:-0.233349 14:1 15:1 16:1 17:1 18:0.621148 19:0.794547 20:1 21:0.64786 
0 0 1 1:-0.923077 2:-0.931818 3:-0.8 4:0.384615 5:-0.0143679 6:-0.424682 7:-0.446971 8:-0.503058 9:-0.449419 10:0.303135 11:-0.149364 12:-0.252093 13:-0.217829 14:0.469464 15:0.506705 16:0.468344 17:0.448036 18:0.349152 19:0.531215 20:0.662366 21:0.350802 
0 0 1 1:-0.567308 2:-0.977273 3:-0.9 4:0.384615 5:-0.737354 6:-0.897325 7:-0.863865 8:-0.784967 9:-0.890903 10:0.322467 11:0.072866 12:0.139307 13:0.0470994 14:-0.873482 15:-0.862608 16:-0.873642 17:-0.874688 18:-0.640646 19:-0.569602 20:-0.560618 21:-0.639436 
0 0 1 1:-0.75 2:-0.886364 3:-1 4:0.384615 5:0.128757 6:-0.897325 7:-0.863865 8:-0.784967 9:-0.890903 10:0.322467 11:0.072866 12:0.139307 13:0.0470994 14:1 15:1 16:1 17:1 18:0.621148 19:0.794547 20:1 21:0.64786 
0 0 1 1:-0.846154 2:-0.863636 3:-0.9 4:0.384615 5:0.0571946 6:-0.424682 7:-0.446971 8:-0.503058 9:-0.449419 10:0.303135 11:-0.149364 12:-0.252093 13:-0.217829 14:0.734732 15:0.753353 16:0.734172 17:0.724018 18:0.48515 19:0.662881 20:0.831183 21:0.499331 
0 0 1 1:-0.884615 2:-0.909091 3:-0.7 4:0.384615 5:-0.0143679 6:-0.897325 7:-0.863865 8:-0.784967 9:-0.890903 10:0.322467 11:0.072866 12:0.139307 13:0.0470994 14:0.469464 15:0.506705 16:0.468344 17:0.448036 18:0.349152 19:0.531215 20:0.662366 21:0.350802 
0 0 1 1:-0.269231 2:-0.863636 3:-0.8 4:0.384615 5:-0.112373 6:-0.131536 7:-0.298028 8:-0.47533 9:-0.188316 10:-0.137604 11:-0.694421 12:-0.605677 13:-0.725556 14:0.966964 15:0.778201 16:0.597086 17:0.935039 18:1 19:1 20:0.998881 21:1 
0 0 1 1:-0.903846 2:-0.954545 3:-1 4:0.384615 5:0.0571946 6:-0.424682 7:-0.446971 8:-0.503058 9:-0.449419 10:0.303135 11:-0.149364 12:-0.252093 13:-0.217829 14:0.734732 15:0.753353 16:0.734172 17:0.724018 18:0.48515 19:0.662881 20:0.831183 21:0.499331 
0 0 1 1:-0.923077 2:-0.863636 3:-0.8 4:0.384615 5:0.128757 6:-0.424682 7:-0.446971 8:-0.503058 9:-0.449419 10:0.303135 11:-0.149364 12:-0.252093 13:-0.217829 14:1 15:1 16:1 17:1 18:0.621148 19:0.794547 20:1 21:0.64786 
0 0 1 1:-0.798077 2:-0.909091 3:-0.8 4:0.384615 5:-0.0143679 6:-0.424682 7:-0.446971 8:-0.503058 9:-0.449419 10:0.303135 11:-0.149364 12:-0.252093 13:-0.217829 14:0.469464 15:0.506705 16:0.468344 17:0.448036 18:0.349152 19:0.531215 20:0.662366 21:0.350802 
0 0 1 1:-0.932692 2:-0.954545 3:-0.9 4:0.384615 5:-0.0143679 6:-0.789585 7:-0.780688 8:-0.69879 9:-0.78236 10:-0.00781142 11:-0.276691 12:-0.0258612 13:-0.266368 14:0.469464 15:0.506705 16:0.468344 17:0.448036 18:0.349152 19:0.531215 20:0.662366 21:0.350802 
0.02184369475822139 0 1 1:0.153846 2:-0.727273 3:0.1 4:0.384615 5:0.128757 6:-0.897325 7:-0.863865 8:-0.784967 9:-0.890903 10:0.322467 11:0.072866 12:0.139307 13:0.0470994 14:1 15:1 16:1 17:1 18:0.621148 19:0.794547 20:1 21:0.64786 
0 0 1 1:-0.980769 2:-0.977273 3:-0.7 4:0.384615 5:0.128757 6:-0.76753 7:-0.73435 8:-0.653663 9:-0.751927 10:0.0113329 11:-0.0841887 12:0.0682834 13:-0.140747 14:1 15:1 16:1 17:1 18:0.621148 19:0.794547 20:1 21:0.64786 
0 0 1 1:-0.855769 2:-0.977273 3:-0.8 4:0.384615 5:0.0571946 6:-0.424682 7:-0.446971 8:-0.503058 9:-0.449419 10:0.303135 11:-0.149364 12:-0.252093 13:-0.217829 14:0.734732 15:0.753353 16:0.734172 17:0.724018 18:0.48515 19:0.662881 20:0.831183 21:0.499331 
0 0 1 1:-1 2:-0.977273 3:-1 4:0.384615 5:-0.0143679 6:-0.789585 7:-0.780688 8:-0.69879 9:-0.78236 10:-0.00781142 11:-0.276691 12:-0.0258612 13:-0.266368 14:0.469464 15:0.506705 16:0.468344 17:0.448036 18:0.349152 19:0.531215 20:0.662366 21:0.350802 
0 0 1 1:-0.961538 2:-0.977273 3:-1 4:0.384615 5:0.0910225 6:1 7:1 8:1 9:1 10:0.318561 11:0.0448253 12:0.0751357 13:0.00692129 14:-0.264702 15:-0.222149 16:-0.203267 17:-0.266206 18:-0.365759 19:-0.261075 20:-0.159103 21:-0.358423 
0 0 1 1:-0.413462 2:-0.863636 3:-0.9 4:0.384615 5:-0.0143679 6:-0.424682 7:-0.446971 8:-0.503058 9:-0.449419 10:0.303135 11:-0.149364 12:-0.252093 13:-0.217829 14:0.469464 15:0.506705 16:0.468344 17:0.448036 18:0.349152 19:0.531215 20:0.662366 21:0.350802 
0 0 1 1:-0.865385 2:-0.977273 3:-0.9 4:0.384615 5:-0.0143679 6:-0.790851 7:-0.772197 8:-0.731956 9:-0.794148 10:0.35415 11:-0.0220689 12:-0.0655685 13:-0.0702931 14:0.469464 15:0.506705 16:0.468344 17:0.448036 18:0.349152 19:0.531215 20:0.662366 21:0.350802 
